the 0.409043 -0.265818 0.001544 0.232809 0.297030 0.397977 0.018005 0.058915 -0.163134 0.287377 0.006168 0.066927 -0.173848 0.020851 0.249741 0.764589 -0.302780 0.229598 -0.470285 -0.487332 0.273564 -0.108607 0.051234 -0.027337 -0.122443 -0.157066 -0.038493 0.049813 -0.389922 -0.217356 0.011813 0.067203 -0.371722 -0.108870 0.070416 0.045535 -0.123831 0.052514 -0.653483 0.242270 -0.009827 0.365262 -0.807229 -0.121214 -0.100958 0.055350 -0.218669 0.689341 -0.571540 0.023042
of 0.299514 -0.212543 0.255936 0.303366 0.391653 0.126367 0.162489 0.185179 -0.352937 0.627679 0.086772 0.283538 -0.221068 0.268692 0.154326 0.828162 -0.561091 0.259417 -0.280391 -0.116359 0.187111 -0.114266 -0.095922 0.372618 -0.120116 -0.619269 -0.418179 0.102303 -0.352900 -0.040828 -0.002904 0.306485 -0.395496 -0.088035 -0.090602 -0.252088 -0.714696 0.176807 -0.677697 -0.085860 -0.243440 0.238721 -0.622424 0.320165 -0.150773 -0.072674 -0.167422 0.440047 -0.474125 0.342165
and 0.215136 -0.211473 0.354309 -0.112235 0.357150 0.214735 -0.063572 -0.095192 -0.079622 -0.104552 0.004821 0.282622 -0.257796 0.100974 0.206706 0.672320 -0.310568 -0.371729 0.080423 0.341263 0.239641 -0.361331 0.128237 0.038902 0.077348 -0.255355 -0.038973 -0.394846 -0.358872 -0.289889 -0.075199 -0.037133 -0.038694 -0.047876 -0.185333 0.009218 -0.276147 0.400125 -0.418414 -0.286726 -0.043790 0.288133 -0.451025 0.300949 -0.063315 0.227845 0.184429 -0.204855 -0.512281 0.068401
one 1.053242 0.829834 -0.466901 0.371769 -0.646349 -0.265142 0.107061 -0.011540 0.000022 -0.096131 0.269232 -0.012239 -0.365135 -0.163448 0.385136 1.027386 0.381122 -0.534961 0.289431 0.836391 -0.512120 -0.118858 0.206107 -0.256186 0.381609 -0.624313 0.544468 0.535656 -0.326959 -0.614103 -0.125328 0.730761 -0.514962 -0.242482 -1.289930 0.003005 -0.261437 -0.182865 -0.659282 0.243882 -0.653959 0.021056 -1.120875 0.407260 0.021473 0.379990 0.479789 0.513588 -0.848131 -0.335290
in 0.547156 -0.187996 0.520325 0.165335 0.256360 0.275754 -0.071631 -0.105924 -0.140032 0.213892 -0.093994 0.039374 -0.375798 0.132539 -0.208811 0.610273 -0.336975 0.191663 -0.542389 0.183982 0.014060 -0.317753 0.405584 0.026811 0.006871 -0.223381 -0.000821 -0.180169 -0.293733 -0.463537 -0.238816 0.232578 -0.008755 -0.153168 -0.315578 0.116511 -0.301993 0.302047 -0.615764 -0.032714 -0.065695 0.346796 -0.797115 0.004200 -0.226892 -0.115204 0.031686 0.343313 -0.560293 0.136429
a 0.252507 -0.051836 0.199381 -0.087641 0.193998 0.534689 0.164730 0.055642 0.401369 0.585441 -0.110186 0.211884 0.109921 0.026933 0.377577 0.091280 -0.367413 0.282760 0.090020 -0.428411 0.416547 -0.502078 0.069788 -0.082193 -0.534875 -0.368203 0.391613 -0.100959 -0.292740 -0.259181 0.294447 0.278068 -0.257498 0.001276 -0.051381 0.435994 0.252398 -0.305829 -0.857104 0.246371 0.223419 0.930097 -0.645215 -0.359064 -0.244045 0.535528 -0.019570 0.484242 -0.573301 -0.238547
to -0.087784 -0.287978 0.096486 -0.288171 0.479885 0.400198 0.170909 -0.600895 -0.484628 0.106921 0.104121 0.651538 -0.637997 -0.335581 -0.024739 0.710839 0.019965 0.018928 -0.341358 -0.091017 0.683657 -0.598260 0.316115 -0.239572 -0.112540 0.462884 0.208204 -0.199793 -0.106317 0.072698 0.137950 -0.288337 -0.481746 0.161696 0.172014 -0.279457 0.609002 0.184625 -0.366596 0.399890 0.316119 0.003191 -0.936281 0.143954 -0.270855 0.476259 0.060275 -0.210148 -0.599435 0.237763
zero 1.427311 0.671485 -0.415094 0.596421 -0.318145 -0.406173 -0.226870 0.358694 0.023884 -0.125261 0.224411 -0.083915 -0.821153 -0.097357 0.395384 0.507517 1.082134 -0.741593 0.063669 0.977902 0.100666 -0.222326 0.594329 -0.165085 0.558870 -0.785149 0.378972 0.917519 -0.504274 -0.457900 -0.329568 0.649493 -0.428848 -0.385783 -1.506666 0.098959 -0.033767 0.124815 -0.469726 0.310020 -0.339211 -0.221427 -0.925760 0.731953 0.283314 0.264762 0.131698 0.439527 -0.993753 -0.363594
nine 1.444964 0.705563 -0.595080 0.541288 -0.596583 -0.077972 -0.207177 0.102384 0.220546 -0.560202 0.238192 0.083076 -0.570602 -0.054981 0.354162 0.888413 0.609898 -0.741320 0.294127 1.030547 -0.978432 -0.424099 -0.092870 -0.527327 0.827425 -0.563888 0.523399 0.428124 -0.523421 -1.021511 -0.235667 1.125530 -0.705293 -0.316943 -1.332830 0.059726 -0.448569 -0.141471 -0.441302 -0.187742 -0.634970 -0.156964 -1.007674 0.753696 -0.255122 0.194397 0.382761 0.364366 -0.610789 -0.611265
two 1.256668 0.709957 -0.507538 0.451280 -0.487696 -0.194418 -0.130787 0.063364 -0.068346 0.270238 0.464318 -0.104512 -0.427281 -0.244479 0.345734 0.633983 0.581197 -0.841459 0.079662 0.739703 -0.192964 0.180984 0.377205 -0.168446 0.473477 -0.842092 0.556512 0.751267 -0.642373 -0.477556 -0.230549 0.618878 -0.485187 -0.301803 -1.648314 0.040992 0.109673 0.153687 -0.588356 0.248915 -0.527502 -0.275540 -0.819788 0.441554 0.279422 0.315698 0.425368 0.254739 -0.921601 -0.140686
is -0.052206 0.209300 0.319570 -0.342271 0.456848 0.233617 0.266536 -0.325440 0.366413 0.762732 0.265557 0.018087 0.382326 0.029463 -0.337043 0.308716 -0.625917 0.100436 -0.561937 -0.147749 0.674474 -0.702551 0.646032 0.273524 -0.658317 -0.616793 -0.165635 -0.271466 -0.001300 -0.016597 -0.059024 0.019035 -0.236205 -0.147175 -0.508741 0.394577 -0.185194 -0.470150 -0.583184 0.155872 0.361892 0.727282 -0.213204 -0.680125 0.221385 0.789334 -0.529456 1.210079 -0.436585 -0.095992
as -0.022969 -0.131527 0.235866 0.056831 0.393015 0.521058 0.363642 -0.211559 0.359017 -0.040843 0.054076 -0.025712 0.084967 0.081079 0.030059 0.584327 -0.282652 -0.030572 -0.283865 -0.036423 0.393337 -0.587451 0.094505 -0.226454 -0.396565 -0.299161 -0.009955 -0.523755 -0.165991 -0.198044 -0.015123 0.034079 -0.125601 -0.282201 -0.121591 -0.240894 -0.329526 0.106382 -0.541222 -0.161848 0.485302 0.391798 -0.544324 -0.291777 0.094474 0.507480 0.277337 0.452416 -0.361047 0.219000
eight 1.323550 0.748417 -0.361605 0.799073 -0.886085 -0.269348 0.031221 0.108386 -0.038390 -0.259355 0.032129 -0.184293 -0.614847 -0.226008 0.426000 1.069478 0.734780 -0.820456 0.571747 0.974328 -0.732080 -0.058839 0.197654 -0.236543 0.537361 -0.611980 0.322001 0.397413 -0.621073 -0.709613 -0.255191 0.649387 -0.363900 0.150836 -1.539964 -0.053265 -0.295236 -0.170065 -0.550446 -0.102030 -0.700851 -0.152223 -1.027766 0.555153 -0.059671 0.297635 0.446219 0.296674 -0.893690 -0.368104
for 0.304757 0.057086 0.323373 0.050368 0.441854 0.635095 0.352119 -0.181598 -0.148271 0.122978 -0.103415 0.451796 -0.515156 0.313442 0.082268 -0.105010 -0.067816 0.244856 0.083451 0.032982 0.279236 -0.539892 0.030204 -0.209872 0.088805 -0.517976 0.031993 -0.026133 -0.549327 0.047536 0.272957 0.184265 -0.371307 -0.319874 -0.152349 -0.013644 0.182958 0.084826 -0.531618 0.077729 0.412163 0.360110 -0.499124 -0.401751 -0.404943 0.569518 -0.077429 -0.038831 -0.536569 0.324685
s 0.602858 -0.156316 -0.136636 0.029890 0.229940 0.190234 0.394660 0.225956 0.163950 -0.248150 -0.038581 0.328916 -0.217699 0.186892 0.386427 0.208377 -0.161800 -0.278642 -0.436856 0.300030 -0.471665 -0.684892 -0.266938 -0.268623 -0.274532 -0.416077 0.013522 0.049907 -0.159370 -0.073809 0.065937 0.154804 -1.055108 -0.293172 0.181702 0.141822 -0.123977 -0.501495 -0.721008 0.003360 -0.193298 0.539406 -0.932128 0.766917 -0.056416 -0.116975 0.374633 0.354652 -0.244222 0.044710
five 1.309115 0.959163 -0.426766 0.671992 -0.695929 -0.383226 -0.232964 0.306985 0.082475 -0.008192 0.180828 0.025739 -0.637463 -0.166692 0.330603 0.877456 0.762502 -0.764404 0.500501 0.774139 -0.218414 0.094494 0.597008 -0.231300 0.566041 -0.857539 0.374325 0.817118 -0.546166 -0.608328 -0.257348 0.652995 -0.361660 0.076248 -1.567145 -0.147406 -0.192520 0.051696 -0.478286 0.104899 -0.550982 -0.203307 -1.206846 0.478891 0.218722 0.354194 0.312307 0.367317 -0.759124 -0.345696
three 1.185434 0.986900 -0.367555 0.471665 -0.535897 -0.292583 -0.110489 0.135873 -0.107620 0.234897 0.298440 -0.139214 -0.388287 -0.282931 0.585647 0.757363 0.618156 -0.832902 0.301953 0.764180 -0.303564 0.238677 0.493669 -0.184622 0.482435 -0.892221 0.430666 0.624702 -0.662704 -0.691349 -0.397279 0.544050 -0.239398 -0.053884 -1.552352 -0.105872 -0.141968 0.070640 -0.515245 0.094656 -0.440997 -0.080641 -0.965872 0.462323 0.296221 0.309983 0.473518 0.158967 -0.834468 -0.156938
was 0.379904 0.014024 0.316417 0.468911 0.028089 0.524211 0.400057 -0.013095 0.778130 -0.617990 -0.110148 -0.155613 -0.502922 -0.463967 0.255258 0.629927 0.405139 0.668740 -0.779085 -0.163836 -0.313381 -0.573667 0.213063 -0.855515 -0.714506 -0.289035 -0.017943 -0.514626 0.257891 -0.955917 -0.299671 -0.008888 -0.786319 0.610569 0.016131 -0.001678 -0.333462 -0.150557 -0.585774 -0.172764 0.235001 0.506329 -1.430359 -0.173999 -0.642705 -0.274553 0.318663 0.461238 -0.176171 -0.519337
by 0.176858 0.018622 0.313355 0.098119 0.035380 0.561236 0.138255 -0.210550 -0.015474 -0.134106 -0.114703 -0.197363 0.042751 -0.368584 0.318802 0.538810 0.063075 0.128552 -0.127963 -0.127719 0.149511 -0.691722 -0.288642 -0.697659 -0.267734 -0.649818 -0.613312 -0.454064 -0.305444 -0.609113 -0.398357 -0.118847 -0.761553 -0.174955 -0.292840 -0.053238 -0.325296 0.420308 -0.482223 -0.143589 0.124160 -0.032423 -0.598470 0.223031 0.109349 0.009190 0.176301 0.276969 -0.278645 -0.224024
that -0.392257 -0.530653 0.353147 -0.793370 0.685708 0.835202 0.671909 -0.239355 -0.169890 0.324452 0.675618 0.134103 -0.091437 -0.552140 -0.376951 0.425436 -0.051508 0.336665 -0.531012 -0.071458 0.541047 -0.599483 0.084140 -0.122182 -0.576204 0.031398 0.164570 -0.401338 -0.023948 0.079641 -0.143592 0.099597 -0.697468 0.074088 -0.279297 -0.225687 0.110084 0.085707 -0.580974 0.562586 0.861805 0.041424 -0.771618 0.028100 -0.256658 0.443451 0.143318 0.204051 -0.139193 0.135469
four 1.288124 0.907754 -0.461988 0.615978 -0.631938 -0.328211 -0.068750 0.098867 0.062398 0.053462 0.253796 -0.057229 -0.465784 -0.319591 0.537899 0.892991 0.675605 -0.760948 0.389431 0.742635 -0.321509 0.223812 0.444301 -0.125458 0.579727 -0.988894 0.352090 0.770275 -0.588074 -0.728325 -0.272778 0.659973 -0.321313 -0.043578 -1.427561 -0.119839 -0.087488 -0.007809 -0.509318 0.053015 -0.673363 -0.187388 -1.074838 0.416478 0.274109 0.318508 0.378266 0.344812 -0.880022 -0.261443
six 1.266921 0.920363 -0.540288 0.905013 -0.624112 -0.360725 -0.052335 0.162451 -0.054522 -0.086331 0.159942 -0.087251 -0.602963 -0.329429 0.447620 0.955462 0.846118 -0.700112 0.598156 0.766722 -0.452445 0.077863 0.495947 -0.283301 0.462136 -0.752548 0.417781 0.640991 -0.604018 -0.581674 -0.284728 0.661564 -0.418870 0.052902 -1.544677 -0.144178 -0.185836 -0.252797 -0.512515 0.041105 -0.762884 -0.194310 -1.137960 0.416828 0.070576 0.210432 0.390538 0.260717 -0.826465 -0.349073
seven 1.486814 0.713982 -0.335122 0.660212 -0.821167 -0.381792 -0.176243 0.228389 0.095716 -0.142289 0.318019 0.048290 -0.450774 -0.399793 0.529769 1.108145 0.721606 -0.737663 0.435220 1.101169 -0.569363 0.076939 0.379086 -0.374835 0.642725 -0.668317 0.457778 0.548646 -0.477484 -0.745199 -0.353412 0.772497 -0.627466 -0.023955 -1.399386 -0.122831 -0.332423 -0.130268 -0.364907 0.021155 -0.710771 -0.251109 -1.140124 0.555763 0.077923 0.280172 0.378834 0.461624 -0.814993 -0.345252
with 0.068335 -0.303614 0.107924 -0.184654 0.387394 0.539107 0.020418 -0.200819 0.144039 0.168181 -0.085557 0.346656 -0.309686 -0.037285 -0.009924 0.416419 -0.172051 -0.402373 -0.082178 -0.050191 0.251678 -0.156799 -0.097724 -0.232719 0.182945 -0.431765 0.325003 -0.258399 -0.333487 -0.360892 -0.018778 -0.149574 -0.017454 0.055117 -0.105493 0.179586 0.111029 0.459852 -0.482793 -0.274035 0.193326 0.555076 -0.773515 0.015408 -0.026848 0.147238 0.418302 -0.025279 -0.504467 0.058191
on 0.663693 -0.293997 0.055582 0.066926 0.102574 0.547978 0.003976 -0.310511 -0.345661 0.091567 0.394970 0.487014 -0.321480 0.050630 -0.319903 0.023040 -0.035916 0.058222 -0.413592 0.206811 0.105014 -0.373693 -0.028768 -0.148575 0.162104 -0.694106 0.049052 -0.024906 -0.826223 -0.442727 0.147400 -0.033104 -0.271438 0.048559 0.175906 0.329622 0.236879 0.299710 -0.597136 -0.292774 0.133151 -0.002520 -0.815302 0.357088 -0.288934 -0.186479 0.015168 0.353629 -0.689620 -0.137394
are -0.505231 -0.031036 0.965833 -0.548358 0.841543 0.644852 -0.018011 -0.625434 0.280207 0.493592 0.497721 -0.207501 0.147609 0.141921 -0.147613 0.012851 -0.275420 -0.636999 -0.286847 0.425411 1.264159 0.151289 0.959447 0.117902 -0.225896 -0.582979 -0.369989 -0.474520 -0.510178 -0.007258 -0.221500 -0.224134 0.315744 -0.510435 -0.551240 0.268091 -0.369350 0.963716 -0.161556 -0.065227 0.645419 -0.133250 -0.316610 -0.495259 0.525572 0.539223 -0.104315 0.004124 -0.611508 0.770602
it -0.026488 -0.222725 0.255443 -0.302880 0.562442 0.767456 0.413394 -0.513403 -0.080028 0.320331 0.237634 0.074452 -0.281540 -0.470940 -0.336168 0.613103 0.008539 0.129543 -0.719768 -0.054237 0.615364 -0.665147 0.452354 0.067684 -0.373970 -0.115464 0.394157 -0.475214 0.057431 -0.226830 -0.141761 -0.336777 -0.475807 0.521203 -0.031463 0.069737 0.425096 -0.271583 -0.466861 0.247290 0.676178 0.466404 -0.845358 -0.274898 -0.114011 0.474679 -0.277338 0.684602 -0.484683 0.020595
from 0.347938 -0.289206 0.423648 0.002739 0.313638 0.210637 -0.323433 -0.018937 -0.570096 0.197880 -0.306332 0.123768 -0.132418 0.131069 0.097856 0.967507 0.019107 0.034336 -0.415625 -0.221098 0.230752 -0.404392 0.036736 -0.200287 -0.014327 -0.102063 -0.249288 0.102457 -0.164827 -0.169903 -0.271158 -0.382460 -0.119192 0.333197 0.049960 0.423303 0.083633 0.639415 -0.194415 -0.457041 0.261452 0.038655 -0.660680 0.427080 0.039927 0.145578 -0.256891 0.016627 -0.643338 0.032011
or -0.094370 -0.194239 0.479715 -0.203550 0.214386 0.725708 0.104287 -0.306342 -0.096141 0.481226 0.391386 0.233283 0.259983 0.118587 -0.032716 0.296924 -0.573319 -0.430939 0.192781 -0.284565 1.184447 -0.103377 0.179028 -0.098639 -0.224362 -0.221103 -0.174143 -0.070453 -0.054373 -0.102124 -0.026900 0.126781 0.575487 0.073866 -0.167203 0.027743 0.230486 0.359109 -0.459079 0.134378 0.200821 0.408236 -0.121163 -0.291791 -0.135391 1.079282 0.035311 0.264763 -0.640518 0.269909
his 0.288905 -0.422303 0.286742 -0.250715 0.127400 1.239158 0.550752 0.546994 0.716450 -0.184387 0.169631 0.530102 -0.181772 0.019263 0.572463 0.605367 -0.277462 0.662570 -0.241192 0.304696 -0.958371 -0.739150 -0.276131 -0.780499 -0.530924 0.037748 -0.052474 0.096781 0.139558 0.055671 -0.126472 -0.390432 -0.803352 0.632382 0.868425 -0.289942 0.219755 0.275351 -1.037843 -0.279736 -0.755816 0.536746 -1.721089 0.278594 -1.278177 -0.400731 1.068674 0.012286 -0.430469 0.334759
an 0.506543 -0.093288 0.092361 -0.061819 0.187594 0.364398 0.286245 -0.012431 0.246130 0.459142 0.071800 0.330282 -0.045206 -0.003576 0.090831 0.140930 -0.056296 0.607427 -0.172832 -0.516012 0.266638 -0.605325 -0.064192 0.183714 -0.427100 -0.488269 0.308954 -0.023939 -0.070537 -0.386637 -0.187567 0.368685 -0.546828 0.103500 0.062824 0.010500 -0.046545 -0.130663 -0.860187 0.463026 -0.006121 0.745263 -0.522851 -0.360948 -0.011246 0.680078 -0.160062 0.443256 -0.358566 -0.256978
be -0.406721 0.111572 0.592636 -0.615590 0.346150 1.112136 0.461069 -0.754825 0.343996 0.379958 0.454150 -0.145202 0.007837 -0.482719 -0.193182 0.303790 0.140757 0.181073 -0.637427 -0.034499 0.920453 -0.556004 0.340566 -0.470313 -0.714128 -0.426609 -0.176243 -0.440867 -0.131718 -0.213268 -0.253672 -0.165647 -0.275000 0.250866 -0.167322 0.101941 0.109041 0.278612 -0.455454 0.605924 0.881198 -0.008144 -0.394265 -0.696624 0.094829 0.650817 0.088093 0.315515 -0.531905 0.088912
this -0.010297 -0.301390 0.193469 -0.118038 0.509302 0.680941 0.553076 -0.074290 -0.194976 0.663910 0.344557 0.093432 -0.132578 -0.160269 -0.239826 0.710379 -0.207766 0.631090 -0.556854 -0.229902 0.590068 -0.644465 0.185583 0.069986 -0.323072 -0.395567 0.420233 -0.205855 0.059428 -0.119377 0.125688 -0.170716 -0.566876 0.151638 0.037869 -0.047604 0.207653 -0.097215 -0.733209 0.583374 0.610242 0.330808 -0.471179 -0.202931 -0.114510 0.378339 -0.048199 0.712749 -0.397394 -0.123375
which 0.113249 -0.363003 0.461596 0.056419 0.374002 0.680528 0.049860 -0.324233 -0.224841 0.488899 0.318987 -0.319858 -0.101206 -0.306964 0.058717 0.580761 -0.161915 0.082990 -0.582876 -0.240705 0.572509 -0.272785 -0.000137 -0.064342 -0.248146 -0.227006 0.032478 -0.323994 -0.329535 -0.429170 -0.115146 -0.047385 -0.419332 0.225544 -0.100846 0.177038 0.110385 0.246710 -0.611735 0.178359 0.404086 0.459646 -0.464922 -0.393091 -0.103946 0.067977 -0.173697 0.452659 -0.265431 0.304988
at 0.745537 -0.036448 0.350287 -0.113817 -0.198600 0.050150 -0.101051 -0.321541 -0.070247 0.393752 -0.383913 0.244540 -0.370482 -0.408884 -0.100259 0.198808 0.179845 0.346474 -0.633432 0.313972 -0.011331 -0.682865 0.787495 -0.293138 -0.377837 -0.102915 -0.093531 0.375304 -0.542888 -0.011636 -0.122756 -0.115300 0.324729 0.072926 -0.276815 0.294340 0.048901 -0.043509 -0.789562 -0.251647 -0.554718 0.236106 -1.315096 0.175956 -0.277276 -0.350062 -0.245372 0.091638 -0.604067 -0.163444
he 0.150622 -0.136498 0.276081 -0.745196 -0.056221 0.770061 0.525869 0.004208 0.477397 -0.560003 0.032799 0.370153 -0.370623 -0.597519 -0.026998 0.762285 -0.189733 0.957995 -0.418773 0.347735 -0.647862 -0.863070 -0.021077 -0.914772 -0.745953 0.418773 0.037358 -0.531204 0.404019 -0.185826 -0.557691 -0.136046 -0.620326 0.597393 0.014558 0.117284 0.363338 0.230693 -0.730696 -0.267962 -0.397772 0.279821 -1.969699 -0.222805 -1.071627 -0.096845 0.709817 0.077715 -0.190034 0.543408
also 0.194846 -0.183131 0.531418 -0.046293 0.672030 0.110036 0.330669 -0.225386 -0.195702 -0.064784 -0.014437 0.185288 -0.079704 0.165112 -0.090067 0.304531 -0.340354 -0.273111 -0.110556 0.068294 0.242344 -0.481645 0.075994 -0.188577 -0.104141 -0.614073 0.008202 -0.554314 -0.142697 -0.166664 -0.157201 -0.068363 -0.175017 -0.419292 -0.220160 -0.051601 -0.323154 0.077938 -0.165594 -0.100179 0.231603 0.313087 -0.312453 0.014510 0.280760 0.381233 -0.048444 0.439659 -0.230997 0.272538
not -0.570460 0.102915 0.447296 -0.603711 0.637412 0.806642 0.641542 -0.866449 0.073628 0.211951 0.700633 0.196286 -0.277914 -0.218320 -0.519015 0.799063 -0.158103 -0.103830 -0.622729 0.228446 0.800288 -0.205979 0.381357 -0.359604 -0.503565 0.163099 0.118814 -0.515768 -0.043634 0.316531 0.047597 0.070774 -0.277158 0.148175 -0.183791 -0.223865 0.450265 0.152640 -0.131215 0.774261 1.065382 -0.163472 -0.725399 -0.637227 -0.416967 0.850282 0.136438 0.266555 -0.316481 0.227834
have -0.397875 -0.425124 1.067711 -0.335513 0.990322 0.831197 0.187122 -0.197552 0.211951 0.142106 0.305187 -0.062708 -0.505400 -0.135684 -0.145987 0.372835 0.182663 -0.254563 -0.302255 0.395502 0.980102 -0.222040 0.584474 -0.447987 -0.244883 0.032325 0.057940 -0.306462 -0.033789 -0.261037 -0.514550 0.031237 -0.104388 -0.330963 -0.361062 -0.073712 0.123978 0.488148 -0.213791 0.176348 0.904183 -0.191641 -0.712173 0.190031 0.099250 0.023599 0.474411 0.045944 -0.114249 0.292220
were -0.183502 -0.098603 0.909199 0.197286 0.414648 0.596653 0.314642 -0.446626 0.075071 -0.785830 0.062003 -0.384310 -0.526231 -0.271930 0.597101 0.570368 0.632725 -0.025322 -0.574498 0.396732 0.490365 0.373753 0.349486 -0.722236 -0.299216 -0.162350 -0.350610 -0.764733 -0.166367 -0.895595 -0.309763 -0.257094 0.055179 -0.040924 0.023452 -0.184545 -0.406973 1.427648 -0.151318 -0.037566 0.578288 -0.462219 -1.456782 -0.068194 -0.406381 -0.388521 0.443781 -0.265904 -0.596184 0.038604
has -0.108978 -0.117141 0.711935 -0.091041 0.911450 0.214662 0.250691 0.115634 0.323100 0.031510 -0.050181 -0.180256 -0.535790 0.250324 -0.302850 0.216649 -0.237727 -0.072931 -0.601131 0.007379 0.293174 -0.592236 0.302158 -0.057962 -0.021416 -0.233725 -0.037922 -0.140560 -0.234550 -0.460888 -0.250735 0.264725 -0.753890 -0.003438 -0.423175 0.158896 0.184070 -0.449602 -0.345795 -0.146845 0.548972 0.665624 -0.311339 0.037007 0.217668 -0.000409 -0.133544 0.851370 0.224442 -0.190921
but -0.307040 -0.037317 0.463095 -0.174648 0.547413 0.650435 0.428076 -0.121726 0.361869 0.218985 0.156334 0.082572 -0.321188 -0.390621 -0.124594 0.812896 0.006720 -0.048498 -0.680257 0.137519 0.530344 -0.241257 0.449173 -0.131324 -0.275560 0.023481 0.216186 -0.452120 0.062595 -0.052248 -0.033468 -0.123705 -0.317238 0.406345 0.080503 -0.074798 0.355571 0.188166 -0.350490 0.224858 0.440821 0.286018 -0.727477 -0.368048 -0.439539 0.339747 0.278299 0.255948 -0.548930 0.138727
other -0.156280 -0.353381 0.668075 -0.450398 0.930977 0.569694 0.034782 -0.504300 -0.343097 0.091450 0.129714 0.069745 -0.051724 0.409058 0.197825 0.218154 -0.332651 -0.410038 0.200351 0.180707 0.870060 -0.026765 0.322725 0.273771 0.101979 -0.385806 -0.149846 -0.452086 -0.537429 -0.220477 -0.225641 0.067306 0.303063 -0.563288 -0.090160 -0.446243 -0.219175 0.801465 -0.009213 -0.211459 0.526380 -0.216856 -0.541022 0.153205 0.335508 0.539457 0.047841 -0.038748 -0.622043 0.596824
their -0.170384 -0.725241 0.417498 -0.338948 0.926200 0.937295 0.130042 -0.131098 0.096666 -0.399357 0.255158 0.406946 -0.475038 0.347177 0.290259 0.641406 -0.086178 -0.042220 -0.072695 -0.009865 0.831206 0.102456 -0.058868 -0.181732 -0.054783 0.328953 0.134270 0.132251 -0.248901 0.233829 0.237550 0.127006 -0.147598 0.081701 0.492949 -0.666673 0.380514 0.910468 -0.407868 0.008963 0.146326 0.273397 -0.863800 0.118018 -0.505826 -0.160634 0.129637 -0.291716 -1.100900 0.559886
its 0.145967 -0.446209 0.256072 0.280354 0.677059 0.337087 -0.189853 0.109688 0.260998 0.276878 -0.205654 -0.000660 -0.735773 0.281553 0.474477 0.394754 -0.237073 0.001541 -0.789967 -0.308211 0.693317 -0.149830 -0.185393 0.239895 0.248306 0.041436 0.089986 0.246442 -0.362061 -0.194499 0.028374 0.114180 -0.674790 0.333537 0.387884 -0.176673 -0.001907 -0.286859 -0.413507 0.029787 0.601263 0.765582 -0.429365 -0.153378 0.262564 -0.130760 -0.183977 0.649230 -0.738286 0.013686
first 0.813418 0.228731 0.001364 0.466214 0.081445 0.437644 0.136084 -0.210824 0.182533 0.167209 -0.196963 -0.060357 -0.097146 0.193003 0.296922 0.604557 0.450459 0.622538 -0.210305 -0.280956 -0.653777 0.156826 -0.159763 -0.753560 0.116888 -0.310192 0.663191 -0.111547 -0.093282 -0.263868 -0.159453 0.320487 -0.592034 -0.133947 -0.046267 0.095353 -0.118191 0.015066 -0.568616 0.308216 -0.038207 0.107646 -1.026847 -0.240705 -0.299202 0.215006 0.114521 1.045402 -0.188001 0.425795
they -0.461787 -0.577891 0.509779 -0.612328 0.671442 0.801257 0.231174 -0.717126 -0.037291 -0.133611 0.337924 0.137327 -0.250033 -0.540710 -0.123921 0.592114 0.221816 -0.318186 -0.582016 0.202182 0.810041 0.022472 0.505355 -0.473110 -0.326276 0.734255 0.364734 -0.574256 0.028904 0.001099 -0.071717 -0.248895 0.031265 0.031637 -0.093350 -0.182020 0.447452 0.825837 -0.202814 0.365173 0.522240 -0.095425 -0.979155 -0.184907 -0.474399 0.195932 0.244363 -0.254627 -0.788389 0.452084
some -0.517439 -0.249545 0.892390 -0.065567 0.925404 0.760105 0.328243 -0.279926 -0.398600 0.086373 0.234120 0.294972 -0.083220 0.307314 -0.078750 0.268231 -0.089475 -0.043659 0.072456 0.248486 0.972622 -0.381790 0.514202 0.315732 -0.149838 -0.291347 0.149511 -0.804973 -0.464921 0.022435 -0.190220 0.159253 0.258617 -0.119154 0.225408 -0.350414 0.128301 0.602793 -0.175178 0.112019 1.021593 -0.150917 -0.742979 0.096904 0.217232 0.293593 0.202677 0.057515 -0.288049 0.250334
had -0.136143 -0.505600 0.393223 0.022034 0.152173 0.440209 0.669238 0.176252 0.538459 -0.628605 -0.115353 0.030084 -0.825873 -0.578521 0.329403 0.577950 0.496240 0.279258 -0.548169 -0.074254 -0.058293 -0.139802 0.037906 -1.056008 -0.228396 0.277508 0.022764 -0.399058 0.419851 -0.672585 -0.452432 -0.335924 -0.648784 0.322802 -0.143116 -0.073687 0.041333 0.385560 -0.355919 -0.111527 0.376254 0.289295 -1.493814 0.194307 -0.807524 -0.433746 0.752602 -0.197684 -0.345782 -0.121637
all -0.394075 0.201782 0.330079 -0.524963 0.521104 0.644078 0.519439 -0.510878 -0.372127 0.018329 0.561298 0.246275 -0.034416 0.050464 0.400134 0.446612 -0.167563 -0.200224 -0.437219 0.252196 0.621117 0.501866 0.011195 -0.056106 0.217010 -0.263594 0.041709 -0.234739 -0.536972 0.029018 -0.023328 0.111529 -0.102409 -0.433800 -0.342111 -0.264802 0.150434 0.716608 -0.167075 0.312532 0.401592 0.012493 -0.591933 -0.256438 -0.074100 0.281677 -0.049128 -0.084158 -0.880045 0.409304
more -0.563315 0.319382 0.500609 -0.205312 1.061069 0.715979 0.486172 -0.220271 0.494267 0.485928 -0.316301 0.077736 -0.703292 -0.159148 0.078769 0.145212 0.078323 0.225507 -0.320997 0.252717 0.696930 -0.612828 0.579040 0.535421 0.272188 -0.297874 0.487191 -0.347376 -0.155037 0.014166 0.126201 0.101591 -0.018259 0.125001 0.301417 0.096464 0.171636 0.507357 -0.482124 -0.009990 0.279172 -0.099298 -0.587244 -0.110755 0.133894 0.714061 -0.022739 -0.103266 -0.461122 0.127046
most -0.441006 0.094914 0.710174 0.053676 1.273099 0.555748 0.057880 -0.211935 0.463090 0.122771 -0.218750 -0.020841 -0.246754 0.463268 0.311907 0.262886 0.049719 -0.000927 -0.154492 0.433822 0.391116 -0.284752 0.789317 0.482092 0.097571 -0.398235 0.093204 -0.762458 -0.297743 -0.271301 -0.262811 0.176439 0.201251 -0.413800 0.070051 -0.558296 -0.227869 0.436478 -0.297578 -0.013913 0.362970 -0.247363 -0.737139 -0.249892 0.102574 0.350614 -0.185229 0.504146 -0.288792 0.116479
can -0.368923 -0.290389 0.286045 -0.839959 0.731187 0.992644 0.191512 -0.813046 -0.148943 0.858404 0.210581 0.117641 0.087340 -0.293966 -0.405825 0.003910 -0.203551 -0.337519 0.159877 -0.048801 1.624092 -0.638360 0.443378 -0.084710 -0.052053 -0.390791 0.204931 -0.091750 -0.237232 0.326501 -0.129195 -0.201574 0.217064 -0.172591 -0.198392 0.239657 0.360637 0.241015 -0.550946 0.702027 0.422912 -0.343752 0.379309 -0.447728 0.273017 0.904068 -0.120698 -0.206422 -0.949097 0.533062
been -0.109098 -0.206837 1.063667 -0.058246 0.772760 0.912371 0.190731 -0.294486 0.681115 -0.189799 0.188306 -0.466120 -0.462641 -0.321385 -0.247530 0.391210 0.439549 0.412783 -0.630436 0.164468 0.371717 -0.601755 0.537478 -0.844371 -0.522572 -0.451660 -0.488075 -0.734191 -0.058973 -0.830332 -0.781228 -0.208010 -0.652811 0.004669 -0.162158 -0.187122 -0.243801 0.520054 -0.131314 0.008891 1.085545 -0.129655 -0.923227 -0.108868 -0.043735 -0.161337 0.298269 0.430356 0.114259 -0.388657
such -0.234406 -0.368603 0.634105 -0.234892 0.804011 0.821528 0.147363 -0.521483 -0.258546 0.230735 0.038903 -0.010609 0.064215 0.293277 0.170286 0.015190 -0.145783 -0.408602 0.176847 0.438696 0.982398 -0.521161 -0.126568 0.263742 0.034015 -0.465710 0.025043 -0.697354 -0.501309 -0.106959 -0.114108 0.143446 0.362981 -0.644042 0.293236 -0.526368 -0.404800 0.357315 -0.421418 0.062359 0.786308 -0.105060 -0.044829 0.006476 0.265118 0.486365 0.432214 -0.163708 -0.346081 0.405663
many -0.403779 -0.338804 0.769310 -0.072733 1.220810 0.635731 0.245428 -0.292267 -0.231436 -0.277036 -0.033304 0.050721 -0.156657 0.401380 0.134859 0.157065 0.019513 -0.054958 0.173402 0.422018 0.628847 -0.221838 0.637140 0.413667 0.105485 -0.002250 0.093544 -0.767117 -0.452079 -0.123200 -0.167685 0.257874 0.398989 -0.556929 0.266365 -0.318703 -0.252782 0.785700 -0.021859 -0.196633 0.632246 -0.167796 -0.743384 0.274165 0.150945 0.124991 0.165323 -0.211769 -0.268465 0.496830
who -0.465627 -0.104897 -0.164529 -0.609874 0.236147 0.346125 0.585427 -0.012279 0.588297 -1.178649 0.162353 0.840877 0.116751 -0.293568 0.047332 1.238447 -0.062142 0.223943 0.369694 0.147642 0.228164 -0.328996 0.207940 -0.775204 -0.604808 0.309480 -0.260519 -0.549894 0.492212 -0.144937 -0.523948 0.168677 -0.548083 -0.337637 -0.264795 -0.504780 0.193571 0.489295 0.018836 -0.193428 -0.107830 0.374625 -1.782243 0.356283 -0.370540 0.353202 0.408960 -0.206936 -0.067942 0.231890
new 0.506605 -0.474228 0.279695 0.606534 0.081189 0.090633 -0.135888 -0.717603 -0.567981 -0.185814 -0.320907 -0.203599 -0.370102 0.538010 0.155442 0.976834 0.181250 0.239452 -0.044244 0.171503 -0.153076 -0.452404 0.073327 0.089696 0.082451 0.399218 0.612160 -0.211959 -0.655149 -0.223151 0.561950 0.321002 -0.775508 -0.418415 0.073785 0.230336 -0.022149 -0.500289 -0.370520 -0.238758 -0.262271 -0.042564 -0.755476 0.578124 -0.097087 -0.298047 -0.084568 -0.165059 -0.527916 0.482015
used 0.402069 -0.379944 0.689710 0.458397 0.761488 0.314801 0.280309 -0.604826 -0.345537 0.146228 -0.037790 -0.260837 0.043065 -0.075072 -0.233903 0.223157 0.123161 -0.123153 0.086236 -0.410159 0.981431 -0.690905 0.153595 -0.435270 -0.222683 -1.063430 0.349557 -0.683431 -0.138854 -0.395979 0.160077 -0.539741 0.761111 0.043188 0.209874 0.138399 -0.336200 0.220599 -0.451002 0.217723 0.994122 -0.188457 -0.323383 -0.839455 0.426353 1.366346 0.067979 0.287030 -0.362976 0.492543
there -0.248727 -0.244328 0.659701 -0.106962 0.516639 0.541515 0.571256 -0.086342 0.004060 0.532303 0.624712 0.178918 -0.172182 -0.208975 -0.359117 0.433421 -0.040007 0.107311 -0.473507 0.439907 0.540700 0.127388 0.936448 0.370463 -0.180718 0.053611 0.201127 -0.239178 -0.479648 0.092263 -0.401298 0.162984 0.129334 -0.332629 -0.385944 0.129782 0.138336 0.408919 -0.179582 0.381836 0.620758 0.377528 -0.652803 -0.196676 -0.187478 0.318317 0.099167 0.362282 -0.396473 0.078562
after 0.817661 0.002939 -0.003825 0.584152 0.012724 0.166473 -0.165580 0.045587 -0.081928 0.202203 -0.257674 0.432022 -0.411590 0.099925 0.075308 0.965329 0.112347 0.841091 -0.772147 -0.233432 -0.409099 -0.089986 0.252725 -0.878627 0.063916 0.067312 0.279427 0.057915 0.314080 -0.673715 -0.317181 -0.126139 -0.340842 -0.008056 -0.115462 0.125170 0.384233 0.310147 -0.523303 -0.067220 0.027877 0.306175 -1.124651 0.106745 -0.890861 -0.265586 0.641029 -0.082137 -0.519294 -0.283662
when 0.263173 -0.254534 -0.189058 -0.245653 -0.068827 0.382542 0.212687 -0.132826 -0.001496 0.345023 -0.065429 0.175459 -0.145085 -0.375606 -0.491854 0.796995 0.117022 0.515064 -0.539861 -0.300732 0.435332 -0.466722 0.163601 -0.683633 -0.243207 0.001511 0.283828 -0.241967 0.292624 -0.359868 -0.209425 -0.799540 -0.285183 0.027303 -0.128937 0.317436 0.482746 0.283746 -0.537328 0.166576 0.082672 0.082469 -0.761700 -0.311255 -0.566573 0.213318 0.492549 -0.249686 -0.525247 -0.045074
into 0.189858 -0.264275 0.074563 -0.059753 0.411842 0.474264 -0.370441 -0.481124 -0.528297 0.176979 0.172923 -0.223598 -0.228419 -0.172039 0.619933 1.019566 -0.188198 0.012244 -0.499532 -0.472329 0.533969 -0.165336 -0.220131 -0.111353 0.189518 0.029981 0.258240 -0.121606 -0.127596 -0.644844 -0.629026 -0.483421 -0.406789 0.483303 0.291725 0.752210 0.276376 0.926865 -0.421248 -0.294244 -0.275515 0.337413 -0.186109 -0.046261 0.077652 0.063042 -0.305764 -0.220236 -0.584393 0.189606
american 0.807111 0.082300 0.005951 0.164699 0.051020 -0.382609 -0.589861 -0.244916 0.370836 -1.413499 -0.311090 0.133224 0.264130 0.546812 0.338120 1.042871 -0.558618 -0.587627 1.916282 0.519574 -1.096990 -0.667723 -0.782370 -0.257335 0.394483 0.543956 0.694029 0.152683 -0.281439 -0.807994 -0.207262 1.168535 0.079171 -1.603302 -0.606356 0.331640 -0.854571 -0.464890 -0.041978 -0.108902 -0.317267 -0.476930 -1.468357 0.532111 0.015443 1.084443 -0.171905 0.247954 -0.188419 -1.202324
time 0.134024 0.122319 -0.113354 0.166771 0.242931 0.578925 0.726577 -0.271913 -0.103377 0.338112 -0.086979 0.264869 -0.577687 -0.058440 -0.125488 0.631735 0.693472 0.452933 -0.540445 0.370072 0.110851 -0.579519 0.131500 -0.328964 -0.012692 0.024283 0.535923 0.294450 -0.225640 0.246845 -0.045753 -0.213373 -0.264701 -0.215659 -0.080148 0.159266 -0.025402 0.574582 -0.798220 0.023950 0.023559 0.293814 -0.635154 -0.477679 -0.323676 -0.267960 0.139455 0.285769 -0.561010 0.000862
these -0.429552 -0.415875 0.881719 -0.244521 0.958737 0.922747 0.201489 -0.646010 -0.366834 0.401183 0.507260 -0.277541 -0.157498 0.014745 0.084366 0.231841 -0.219073 -0.426368 -0.091024 0.396333 0.948099 0.125139 0.304251 0.143188 0.148835 -0.253587 -0.109198 -0.304718 -0.718319 -0.082676 -0.205770 -0.329564 0.131800 -0.326124 0.160326 -0.425710 -0.166958 1.218504 -0.330962 0.123250 0.763168 -0.366541 -0.536527 -0.128544 0.257836 -0.028481 0.489082 -0.209204 -0.486806 0.643970
only -0.144108 0.410888 0.397061 -0.195056 0.375580 0.548543 0.517860 -0.425538 0.278263 0.498160 0.189597 0.161161 -0.278335 0.123664 -0.002681 0.566295 0.135676 0.007188 -0.505799 -0.004907 0.545651 0.310959 0.602512 -0.203933 -0.234750 -0.201562 0.128227 -0.148191 -0.199246 -0.150541 0.087023 0.054047 -0.218083 0.125259 -0.308334 0.093252 0.324531 0.278137 -0.482314 0.182518 0.429002 0.300377 -0.823649 -0.530781 -0.135848 0.453260 -0.206592 0.159023 -0.523665 0.180194
see 0.555833 -0.397949 -0.243445 0.224312 0.466199 -0.116047 0.638433 -0.033586 -0.945072 0.211961 0.291943 0.498265 -0.052022 0.278949 -0.188190 0.506310 -0.825407 0.023789 0.085392 -0.136657 -0.113022 -0.240177 0.004069 0.413867 -0.001807 -0.999386 -0.061072 -0.143978 -0.422540 0.179036 -0.020348 0.256140 0.306141 -0.551131 -0.414181 0.144546 -0.485440 -0.404453 0.119234 0.125473 -0.003984 -0.236815 0.067044 0.462701 0.326174 0.699381 -0.102197 0.627313 -0.400348 0.331701
may 0.077872 -0.039994 0.280239 -0.172606 0.286301 0.968916 -0.001268 -0.552200 -0.056493 0.467133 0.513948 0.256991 -0.010892 -0.011414 -0.854822 0.670794 -0.452663 -0.066241 0.134893 0.075255 1.234171 -0.154785 0.493962 -0.354973 -0.241039 -0.123115 0.067512 -0.164338 -0.263352 0.171631 -0.306172 0.125761 -0.008099 -0.222176 -0.251666 -0.074343 0.276396 0.233384 -0.288551 0.324138 0.543867 -0.418240 -0.239084 -0.205608 -0.240129 0.517091 0.354344 -0.208567 -0.652000 0.375967
than -0.619963 0.430898 0.591279 -0.074849 0.710367 0.372245 0.405955 -0.050304 0.331050 0.583681 -0.179747 0.011800 -0.688655 -0.289678 -0.005109 0.169090 0.127763 -0.170843 -0.356687 0.208597 1.005038 -0.265508 0.545167 0.378575 0.157910 -0.273118 0.505430 0.234931 -0.028031 0.060532 0.259674 0.066060 0.070053 0.344000 -0.334197 0.018462 0.131132 0.560716 -0.670701 -0.124933 0.157819 0.036649 -0.630814 -0.077664 0.056491 0.827271 -0.325835 0.244364 -0.394648 0.087390
world 0.729339 0.335261 -0.145076 -0.516653 0.701295 0.357344 0.227142 -0.597369 -0.212404 -0.562726 -0.636162 0.081036 -0.684590 0.338727 0.350668 0.150947 0.022952 -0.135292 -1.191383 0.068498 -0.556172 -0.084725 0.252513 0.031719 1.011977 -0.010880 0.111783 0.034608 -0.368989 -0.074475 -0.505971 0.570407 -0.003881 -0.674662 -0.271891 -0.148096 -0.620483 0.365868 0.060459 0.287005 -0.155445 0.387807 -0.639812 0.843022 -0.525161 0.328884 -0.631972 1.279977 -0.493768 0.310231
i -0.121310 0.185545 -0.629824 -0.141865 -0.684208 0.093130 1.232920 -0.272560 -1.137544 0.533078 0.453946 0.953980 0.302868 -0.480925 0.342216 0.635797 -0.293813 -0.890782 -0.351449 0.779179 -0.140418 -0.260849 0.132842 -0.736804 -0.912789 0.060084 0.606299 -0.890339 0.655120 0.584143 -0.826909 -0.100993 -0.128022 0.063254 -0.514144 0.180772 0.302157 -0.270774 -0.419970 0.947150 -0.170207 0.645880 -0.967579 0.246889 -0.220035 0.587245 0.555958 0.136282 -0.671887 0.341807
b 0.542379 0.957763 -0.360983 -0.175142 -1.105075 -1.254812 -0.093696 0.352678 -0.008747 -0.171608 0.168352 0.454613 0.683579 -0.655045 0.745316 1.102163 -0.721823 -0.532938 1.758209 0.629072 -0.430156 -0.241038 0.189780 0.030727 -0.181628 -0.307742 0.553938 -0.160523 -0.043553 -0.878522 -0.340543 0.252257 -0.278117 -0.910600 -1.100521 0.146338 -0.669481 -0.880153 -0.866682 1.471198 0.046784 -0.148713 -0.208235 -0.460779 1.005403 1.256059 0.830319 0.325222 -1.084457 -0.512358
would -0.337381 -0.314689 -0.168612 -0.302637 0.488918 0.465417 0.572272 -0.808932 -0.043928 0.028287 0.478383 0.397076 -0.702511 -0.601944 0.133495 0.702248 0.067686 -0.003709 -0.458140 -0.112015 0.647903 -0.522686 0.206114 -0.525294 -0.353342 0.725310 0.632856 0.017574 0.166214 0.117873 0.321413 -0.015326 -0.489283 -0.042572 0.265929 -0.183073 0.576684 -0.007050 -0.310605 0.639323 0.456315 -0.313436 -0.987951 -0.060588 -0.451146 0.329888 0.199306 -0.278082 -0.405312 0.129439
d 0.842371 0.961587 -0.334504 0.080838 -0.975672 -1.112017 0.064822 -0.061811 0.130897 -0.231685 -0.246868 0.601809 0.148659 -0.397643 0.377326 1.098294 -0.563745 -1.055551 1.524373 0.552921 -0.685374 -0.574061 -0.160464 -0.341794 -0.240304 0.075178 0.086646 -0.370953 -0.128882 -0.586198 -0.719096 0.511272 -0.482285 -0.231187 -0.606031 0.433218 -0.421255 -1.082082 -0.811382 0.816845 -0.240761 -0.137894 -0.508059 -0.355299 0.799339 0.737802 0.691629 0.319160 -0.672298 -0.184330
no -0.387025 -0.428753 0.313871 -0.487972 0.127319 0.611544 0.914237 0.407042 -0.041040 0.676276 0.911677 0.597188 -0.328919 -0.160537 0.006464 0.189091 0.062060 -0.158334 -0.346100 0.237216 0.043390 0.320235 0.280124 0.144849 -0.041547 -0.101160 0.022094 -0.350140 -0.180226 0.023574 -0.063434 0.587428 -0.563204 0.393126 -0.352780 -0.017093 0.670613 -0.372804 -0.276042 0.659914 0.263455 0.517276 -0.391200 -0.620621 -0.613962 0.752445 0.074686 0.253125 -0.581778 -0.117437
however -0.353094 -0.150892 0.673871 0.053164 0.550411 0.492613 0.431779 -0.211526 0.306652 0.123139 0.134102 0.066662 -0.724562 -0.120878 -0.189893 0.745717 -0.069860 0.165632 -0.759988 -0.104861 0.475933 -0.416524 0.290321 -0.171892 -0.129677 0.052915 0.178880 -0.478355 0.022081 -0.160431 0.037128 0.134339 -0.351814 -0.041840 -0.120002 -0.283770 0.149823 0.107538 -0.461762 0.336567 0.737117 -0.112081 -0.626229 -0.212904 -0.133226 0.236798 0.355692 0.099251 -0.255610 -0.258675
between -0.014545 -0.855877 0.388360 0.174218 0.275820 0.211100 -0.069935 -0.640321 -0.280880 0.910240 0.294896 0.100247 -0.612311 -0.237547 -0.390212 0.472028 -0.336079 -0.307706 -0.469388 -0.100071 -0.034902 0.378686 -0.169087 1.047748 0.454294 -0.237593 0.234965 0.153922 -0.304242 -0.054219 -0.290574 -0.486632 0.327484 -0.250511 -0.783573 -0.201405 -0.044813 1.216560 -0.145975 -0.020943 -0.345098 0.807446 -0.582525 -0.146521 0.538919 0.107943 0.411564 -0.037674 -0.252029 -0.458553
about 0.232277 0.201034 -0.558650 -0.495594 0.442272 0.294052 0.749334 0.592589 -0.684603 0.336225 0.670674 0.436515 -0.464364 -0.170934 -0.787755 -0.224876 0.169339 0.165289 -0.054343 0.680896 0.218751 -0.563687 0.445609 0.673304 0.068208 -0.561421 0.141718 0.396554 0.103242 -0.043575 -0.435588 0.332977 -0.325452 0.542728 -0.206089 0.689911 0.095888 0.577848 -0.029914 -0.312541 0.034798 0.227369 -1.141592 0.851794 -0.227269 0.405577 -0.373079 0.243780 -0.035474 0.381008
over -0.187429 -0.129071 0.113326 0.486780 0.281355 0.485849 0.190722 0.229054 0.087388 0.451496 -0.055912 0.572534 -0.629605 -0.429923 0.559101 0.432153 0.365226 0.119025 -0.724738 0.312430 0.693698 -0.065731 0.093585 -0.019397 0.589065 -0.248614 -0.317697 0.351458 -0.301730 -0.340220 -0.009561 -0.415751 -0.039269 -0.356831 -0.318392 0.204944 0.606749 0.540929 -0.148080 0.242161 -0.007721 0.415826 -0.788514 0.238443 -0.006702 -0.179086 0.243906 0.350840 -0.193589 -0.140105
years 0.593165 0.324899 0.175200 0.968387 0.267865 0.412300 0.212612 0.465146 0.534402 0.771176 0.129613 -0.022847 -1.298635 0.279248 0.471655 0.747063 0.705128 0.943861 -0.437374 0.732678 -0.012845 0.003793 0.926184 -0.915481 0.175801 -0.156978 0.389004 0.478222 0.226783 -0.264104 -0.458970 0.240886 -0.088607 -0.396328 -0.889747 0.252757 -0.009670 0.965123 0.036028 -0.350768 -0.176785 0.254351 -1.328666 0.257488 -0.678308 -0.121481 0.577316 -0.111982 0.067756 0.458505
states 0.345546 0.312274 0.592054 0.451169 0.600924 -0.693819 -0.489982 -0.709039 -0.396348 -0.355978 -0.314779 -0.062447 -0.841565 0.413610 -0.150210 0.676501 -1.006512 0.371278 -1.161954 0.205705 0.032056 0.297593 -1.055513 0.411570 0.177048 0.136070 -0.765690 -0.067302 -0.008576 -0.248052 0.491165 0.481864 -0.742675 -0.969741 -0.830344 0.008717 -0.213121 -0.107957 -0.295526 0.105220 0.283444 -0.307431 -1.479869 0.098381 0.010668 0.582191 -0.299620 0.075400 -0.154145 0.160766
people -0.549397 -0.068088 -0.232798 -0.001873 0.861964 0.306547 0.119556 -0.496562 -0.765368 -0.585347 -0.133158 0.710740 -0.301925 0.497660 -0.330397 0.817160 -0.522355 0.225587 0.161473 0.247212 0.829516 -0.442791 0.600492 0.134677 -0.431574 0.465950 -0.353723 0.070029 0.477581 -0.208818 -0.106973 0.704379 0.145088 -0.160089 -0.546144 0.346208 -0.371267 0.805090 0.455768 -0.218359 -0.106287 -0.207452 -1.356413 0.719133 -0.345293 0.536961 -0.496072 -0.352026 -0.544954 0.013219
war 0.826924 0.011914 -0.060885 1.248195 0.257070 -0.273159 0.301553 -0.131834 -0.461771 -0.389438 -0.279976 0.419679 -0.977439 -0.597823 0.430908 0.535079 -0.675495 -0.102797 -1.570848 -0.363796 -0.521536 -0.084701 -0.697058 -0.061463 0.217563 0.025524 0.149935 -0.162077 0.382772 -1.203633 -0.321370 0.446475 -0.048931 -0.514085 0.691835 -0.273459 -0.493163 0.901674 -0.275474 0.514209 -0.191248 -0.273487 -1.558239 0.463005 -1.064494 0.547286 0.354829 -0.380470 0.128250 -0.877794
during 0.898343 -0.200597 0.225067 0.985943 0.384469 0.163154 -0.370174 0.280671 0.018500 0.268200 -0.370179 0.157814 -0.617334 -0.014823 -0.069583 0.577160 -0.049902 0.482118 -0.900999 0.231739 -0.087353 -0.359261 0.276331 -0.760730 -0.014455 -0.012655 0.288485 -0.135564 0.115733 -0.514899 -0.419749 -0.082937 0.196666 -0.197340 0.334422 0.004252 -0.350232 1.065412 -0.474186 0.024121 -0.195505 -0.107544 -0.734562 -0.027869 -1.034435 -0.159708 0.419082 -0.033492 -0.092009 -0.598205
united 0.712357 0.238553 0.497421 0.675058 0.243408 -0.459897 -0.846025 -0.771480 -0.283330 -0.622292 -0.540786 0.213095 -0.939808 0.503287 -0.354524 0.684057 -0.852526 0.286219 -1.046985 0.226712 0.090706 0.300082 -0.821941 0.161312 0.152450 0.018125 -0.644910 -0.209331 -0.050049 -0.432560 0.604149 0.533834 -0.682534 -1.166574 -0.647094 -0.209015 -0.135473 -0.296076 -0.062386 0.198056 0.028721 -0.225662 -1.529086 0.384037 -0.200475 0.504631 -0.537375 0.288367 -0.104877 0.015561
known 0.333171 -0.294027 0.739537 0.155526 0.559587 0.237161 -0.010669 -0.119034 0.215258 0.294180 -0.149188 -0.313068 0.444640 0.060491 -0.040903 0.534951 -0.029156 0.195586 0.109027 -0.009621 -0.003461 -0.151954 0.423676 -0.002186 -0.838355 -0.544417 -0.023799 -0.869401 0.058232 -0.530168 -0.292751 0.185002 0.080197 -0.383293 -0.236099 -0.005693 -0.638617 0.070927 -0.416698 -0.120880 0.312766 0.362249 -0.463334 -0.289423 0.123098 0.245086 -0.211957 0.866921 -0.410177 0.036041
if -0.482043 0.430511 -0.055710 -1.086410 0.079609 0.562394 0.661167 -0.495968 0.002845 0.758120 0.734258 0.668991 0.344227 -0.471694 -0.015934 0.337119 -0.267733 0.291693 -0.571885 -0.005523 1.047866 -0.375385 0.278233 -0.245130 -0.413927 -0.203665 0.249859 -0.145060 0.225632 0.352155 -0.108288 -0.209075 -0.455595 -0.328426 -0.458570 0.571429 0.923790 0.086855 -0.825668 1.334738 0.659525 0.415034 -0.186980 -0.554979 -0.169179 0.844042 0.074357 -0.041528 -0.685047 0.117956
called 0.300739 -0.315737 0.243660 0.121643 0.248891 0.427662 -0.158283 -0.361396 -0.195625 0.344974 0.030706 -0.141476 0.816349 -0.001607 0.022224 0.423215 -0.368108 0.086529 0.077862 -0.417890 0.466103 -0.102450 0.103775 -0.178312 -0.737720 -0.617779 0.102856 -0.567877 -0.231259 -0.414848 -0.138781 -0.001708 0.164151 -0.204343 -0.329953 0.463705 -0.270732 0.243674 -0.540012 -0.056305 0.344111 0.868759 -0.255234 -0.409536 0.206526 0.061648 -0.030962 0.512992 -0.592146 0.356463
use 0.305974 -0.384998 0.587195 0.310131 0.797808 0.487970 0.341863 -0.427192 -0.144475 0.113363 -0.034441 0.144633 -0.386127 0.105228 -0.087409 0.172352 0.285927 -0.175245 0.317655 0.033636 1.160338 -0.399735 0.022917 0.078039 0.229603 -0.612890 0.317085 -0.601017 -0.331150 0.349556 0.242531 -0.253458 0.367061 0.129347 0.492047 -0.253585 0.003214 -0.010796 -0.248850 0.637207 1.040420 -0.205671 -0.072978 -0.614266 0.241876 1.478867 -0.030178 0.098505 -0.311254 0.368977
th 1.010157 -0.146345 -0.001369 1.122994 -0.168050 -0.155758 -0.280341 0.822340 0.107578 -0.334941 -0.222176 -0.540029 -0.345898 -0.331402 0.422087 1.422462 0.346032 0.263792 -0.142837 0.408132 -0.580767 -0.010300 0.735662 0.007897 0.140737 -0.071299 0.525297 -0.155850 -0.283754 -0.024585 -0.568922 0.234031 0.329872 0.256228 -0.421287 -0.082853 -0.630551 0.425295 -0.614495 0.897667 -0.124929 -0.372474 -1.021290 0.294636 0.062406 -0.255112 0.235826 1.691372 -0.591704 0.448083
system 0.302164 -0.517845 0.175202 0.933566 0.618120 0.372914 0.564574 -0.935380 0.135062 0.194198 -0.247501 0.134797 -0.683591 0.316257 0.640206 -0.184558 0.318875 0.035858 -0.074379 -0.928957 0.834819 -0.049756 -0.099970 -0.296176 -0.305584 0.029239 -0.098600 -0.250515 -1.304835 0.389810 0.011238 -0.039979 -0.532829 0.258904 -0.605686 0.341615 -0.069250 -0.076279 -0.732425 -0.388463 0.582988 0.158592 0.872962 -0.618286 0.535611 0.934861 -0.150177 0.068318 -0.414814 -0.062111
often -0.488582 -0.330719 0.638364 -0.021201 1.024591 1.014996 0.310824 -0.211442 0.207214 -0.056855 -0.023820 -0.110401 0.209187 0.062326 -0.364039 0.068207 -0.559525 -0.204523 0.091673 0.106100 0.892204 -0.930614 0.479669 0.004529 -0.252588 -0.324740 0.135180 -0.536978 -0.094514 -0.081297 0.213337 -0.154569 0.688867 -0.376635 0.383026 -0.024039 -0.060971 0.542835 -0.480035 -0.041915 0.480159 -0.056953 -0.392559 -0.285648 0.023906 0.581080 0.331331 0.162440 -0.065434 0.348584
state -0.192296 -0.363702 0.204352 0.543209 0.412052 -0.532322 -0.110642 -0.667059 -0.286721 -0.004733 -0.070485 -0.385901 -0.452431 0.645844 0.238775 0.743192 -1.290070 -0.030913 -1.136298 -0.412638 0.118229 -0.289655 -0.015654 0.134263 -0.423094 0.374389 -1.280119 -0.145159 -0.508027 0.221597 0.749435 0.671621 -0.585009 -0.351838 -0.836756 0.527822 -0.254360 -0.381071 -0.716535 -0.218829 -0.237524 -0.174331 -0.476771 -0.188538 -0.299539 0.319240 -0.390287 -0.407566 -0.323827 -0.149601
so -0.333086 -0.116792 0.054539 -0.644288 0.222058 0.541724 0.582382 -0.375555 0.020885 0.512337 0.199408 0.136539 -0.130091 -0.576872 0.020761 0.483632 -0.006103 -0.180672 -0.513820 0.043141 0.759134 -0.534480 0.468930 -0.324199 -0.409637 0.109544 0.537812 -0.416817 0.132744 0.215066 -0.110044 -0.441716 -0.217499 0.261616 0.002728 0.297378 0.630504 0.248148 -0.476037 0.285568 0.316902 0.364799 -0.623168 -0.213332 -0.130113 0.464314 0.146823 0.054022 -0.682053 0.166372
history 0.973660 -0.531426 0.043774 0.631090 1.124175 -0.144436 0.922948 0.177729 -0.807569 -0.307111 0.147609 0.170182 -0.698377 0.600057 -0.029866 0.695000 -0.296139 0.423285 -0.410423 0.195218 -1.066823 -0.093608 0.125906 0.654282 0.307410 -1.047154 0.120786 0.018123 -0.412591 0.156997 -0.583840 0.128552 0.337918 -0.180766 0.139799 0.232278 -0.788790 -0.264879 0.299937 0.239720 -0.291314 -0.319117 -0.293017 1.083775 0.048023 0.010653 -0.259358 0.863832 -0.259819 0.161585
will -0.133051 -0.085100 -0.332954 -0.755421 0.358056 0.578643 0.171820 -0.781824 -0.159222 0.645872 0.694799 0.386554 -0.196072 -0.287417 0.037976 0.657963 0.064089 -0.224180 -0.548652 -0.008310 1.448926 -0.566874 0.647384 -0.716798 -0.075579 0.611810 0.590027 0.111697 -0.290080 0.524923 0.241269 -0.057415 -0.326097 -0.044510 -0.041950 -0.116271 0.913950 0.146665 -0.382152 0.592586 0.309786 -0.097277 -0.206996 -0.023152 -0.223112 0.682253 -0.165383 -0.290542 -0.623834 0.405110
up 0.313703 -0.288749 -0.288625 -0.422350 0.217366 0.483874 0.002503 -0.258153 -0.292321 0.319592 0.195779 0.152688 -0.375243 -0.576314 0.475663 0.330297 0.088012 -0.073381 -0.193380 -0.144420 0.546968 -0.469580 0.491672 -0.348154 0.266954 0.108550 0.576392 0.114826 -0.403607 -0.395565 0.225808 -0.617259 -0.036167 0.067328 0.061332 0.875010 1.041315 0.560430 -0.366388 -0.195444 -0.261621 0.229532 -0.929236 0.203982 -0.485444 -0.141992 -0.076830 -0.283160 -0.800893 0.165459
while -0.163034 -0.094871 0.321059 -0.021217 0.704776 0.325057 0.172011 -0.215980 0.401531 -0.234497 -0.016981 0.426007 -0.209258 -0.113036 0.117551 0.304642 -0.257940 0.155475 -0.345438 -0.011713 0.476425 -0.273966 0.320902 -0.185591 -0.191041 -0.044791 0.120904 -0.221548 0.000182 -0.011376 0.009841 -0.305777 0.148328 0.161044 -0.050826 0.294926 0.292316 0.468929 -0.535424 -0.263985 0.001977 0.299148 -0.673747 0.084524 -0.268469 0.155778 0.276101 -0.126390 -0.334978 -0.140883
where 0.280840 -0.147162 0.637550 -0.197025 0.082954 -0.026372 -0.222615 -0.601836 -0.295722 0.299515 -0.302673 0.249292 0.247431 -0.128813 -0.109869 0.420087 -0.294067 0.120765 -0.670052 0.485270 0.428918 -0.315333 0.387711 -0.015285 -0.664508 0.185032 0.040558 -0.252909 0.032944 0.144540 -0.371817 -0.617674 0.365849 -0.518551 -0.317719 0.674512 0.121611 0.100986 -0.593481 0.279492 0.001600 0.733579 -0.526310 -0.189902 -0.027808 -0.038249 -0.124667 0.062850 -0.727540 0.232879
city 0.561302 -0.381519 0.398363 0.768849 -0.122928 -0.591216 0.092445 -0.202227 -0.565488 -0.079838 -0.682480 -0.427530 0.024621 0.812997 0.730189 0.120255 -0.122848 0.173058 -0.990142 0.601817 0.347873 -0.078522 1.673586 0.256027 -0.114921 0.951160 -0.877370 0.340466 -0.942310 -0.788234 -0.380295 0.178275 -0.412201 -0.289563 -0.399194 0.331973 -0.156514 -0.793009 0.162014 -0.671944 -0.552772 0.829719 -1.287170 0.687119 -0.101610 -0.330780 -0.500734 0.509583 -0.829874 -0.341248
being -0.353275 0.194598 0.520866 -0.332291 0.407368 0.753318 0.322690 -0.322528 0.589831 -0.263985 0.136769 -0.329562 0.134698 -0.244163 -0.170028 0.261003 0.068286 0.232567 -0.717519 -0.194458 0.583043 -0.352039 0.411976 -0.481516 -0.275082 -0.339227 -0.361171 -0.391330 0.131098 -0.568810 -0.399338 -0.233872 -0.370904 0.251177 -0.161417 -0.037758 -0.100344 0.476971 -0.395495 -0.244442 0.320620 0.404138 -0.732089 -0.276511 -0.119615 0.295520 -0.063596 0.419604 -0.434128 -0.059291
english -0.071617 0.645986 0.862784 0.735339 -0.720137 0.140590 0.763519 0.510804 -0.134076 -0.635921 -0.860381 0.074248 0.252066 0.409474 -0.822248 2.133259 -0.519029 -0.948199 1.664361 0.091721 -0.671802 -0.398924 0.482616 0.160714 0.215260 -0.452596 0.333149 -0.252418 -0.233548 -0.033644 -0.528420 0.085175 0.109512 -0.257571 0.351036 0.841544 -0.025310 -0.159466 0.694477 0.461661 -0.054813 -0.032210 -1.174614 0.021710 0.636306 1.699444 -0.198338 0.923351 0.004320 -0.268903
then -0.140743 -0.012973 -0.151693 -0.372559 -0.386047 0.117760 -0.068705 -0.353146 -0.142545 0.151982 0.069946 0.332499 0.309432 -0.579337 0.474274 0.930822 -0.009951 0.457408 -0.829986 0.042095 0.494288 -0.503105 -0.102403 -0.773611 -0.373709 -0.111616 0.248263 -0.321867 0.197708 -0.010715 -0.147470 -0.613997 -0.554490 -0.296301 -0.388874 0.840880 0.624483 0.153162 -0.952216 0.631691 -0.031097 0.490116 -0.561238 -0.351117 0.143331 -0.137200 0.337847 -0.104452 -0.809662 0.351528
any -0.617460 0.015878 0.522638 -0.575827 0.507426 0.860374 0.628224 -0.489458 -0.059639 0.609034 0.573096 0.514868 0.004880 -0.069834 0.094915 0.253562 -0.144002 0.318492 -0.311997 -0.286472 0.957300 -0.055500 -0.091263 0.137804 -0.233887 -0.050826 -0.174861 0.134464 -0.142666 0.137084 0.100330 0.370349 -0.220590 -0.118704 -0.056573 0.088929 0.503976 -0.200973 -0.735390 1.091275 0.778169 0.205982 -0.276835 -0.726322 -0.250499 0.785374 -0.016547 0.343434 -0.665129 -0.071257
both -0.329513 -0.132928 0.477644 -0.050510 0.552273 0.451285 0.118566 -0.214977 0.039735 -0.116423 0.047000 0.193640 -0.076056 0.009688 0.279779 0.425212 -0.422298 -0.296986 -0.210272 0.136449 0.505241 -0.099047 -0.046930 -0.011636 -0.276269 -0.098040 0.109953 -0.321487 -0.313418 -0.242140 0.063853 0.018374 0.199785 -0.329527 -0.176045 -0.363153 0.180204 0.456144 -0.294693 -0.145067 0.115530 -0.000469 -0.697156 -0.136706 0.291161 0.134331 0.376720 0.037630 -0.280459 0.125935
under 0.345851 0.174574 0.271079 0.801844 -0.212690 -0.069766 0.146519 -0.216795 0.109884 -0.210539 0.274548 0.024175 -0.877523 -0.014376 0.600681 1.032942 -0.434248 0.114704 -0.884969 -0.002123 0.369376 -0.065457 -0.574528 -0.232758 -0.332685 -0.537504 -0.906917 -0.414773 -0.430979 -0.265753 -0.451514 -0.058417 -0.381527 -0.079630 0.065632 -0.060598 0.248466 0.122011 0.178330 -0.032367 0.060240 0.195035 -0.436670 -0.064169 -0.318134 -0.084221 0.542861 -0.127212 -0.475762 -0.303277
out 0.100183 -0.441339 -0.313091 -0.516275 0.295612 0.580197 0.051575 -0.159991 -0.326103 -0.131636 0.215834 0.301469 -0.097293 -0.822445 0.383869 0.487151 0.028847 0.446809 -0.506789 -0.173520 0.458703 -0.559040 -0.004430 -0.503437 0.227406 0.095737 0.450730 -0.074397 -0.131157 -0.304152 -0.335755 -0.615757 -0.396762 0.050914 -0.216075 0.658875 1.035277 0.542456 -0.350171 -0.028142 -0.164371 -0.048119 -0.934257 0.141736 -0.623333 0.014094 0.057543 0.069908 -0.608726 -0.128958
made -0.007486 -0.277012 0.249205 -0.507132 0.286038 0.820819 0.081771 -0.018107 0.312861 0.168871 0.224314 -0.103806 -0.359824 -0.090774 0.488063 0.417066 0.286507 -0.001443 -0.204690 0.275452 -0.059780 -0.315803 0.126561 -0.223986 0.335603 -0.197699 0.093033 -0.634028 -0.069612 -0.872281 0.420133 -0.268744 -0.227912 0.238493 0.497409 -0.250476 -0.008529 -0.221610 -0.499164 -0.238957 0.395683 -0.178178 -0.945046 -0.275189 -0.558500 0.472639 0.147832 0.087837 -0.150772 0.259965
well -0.004553 -0.008182 0.576286 -0.105904 0.745001 0.500748 0.225115 -0.087924 0.269847 -0.126968 -0.130407 0.184725 -0.323503 0.032795 0.239412 0.123133 -0.071356 -0.234302 -0.161038 0.491062 0.365825 -0.609211 0.430869 0.086620 -0.144073 -0.147784 0.206666 -0.661476 -0.285467 -0.153353 -0.197792 0.017630 0.015108 -0.082801 0.235211 -0.086048 -0.214939 0.387672 -0.245552 -0.306379 0.313000 0.335737 -0.542340 -0.153916 -0.066907 0.213186 -0.090945 0.096452 -0.280746 0.216207
her 0.375087 -0.364651 0.222141 -0.488092 0.159117 1.266469 0.195096 0.495110 0.877190 -0.070149 0.417475 1.063623 -0.374547 0.314255 0.148737 0.281952 -0.432556 0.280821 0.243336 0.445905 -0.251799 -0.459750 -0.154030 -0.969252 -0.960384 -0.025121 0.092141 0.332978 0.955372 -0.208621 0.485124 -0.447614 -0.595816 0.723102 0.546177 -0.250101 1.170484 -0.024391 -0.376190 -0.453934 -0.877939 0.592712 -1.589378 0.657059 -0.960502 -0.362412 0.965144 0.142486 -0.349244 0.062170
e 0.468594 -0.048184 0.143578 -0.177561 -0.684766 -0.176276 0.213906 -0.284651 -0.489236 0.566835 -0.003075 0.007352 0.660676 -0.034242 0.163484 0.201817 -0.394045 -0.925161 0.495061 0.274962 0.275171 -0.607326 -0.309069 -0.134844 -0.390094 -0.700240 0.154302 -0.344725 -0.260664 0.698961 -0.571396 -0.022738 -0.034620 -0.593586 -0.487919 0.280866 -0.093920 -0.130568 -0.587761 0.863125 0.496814 0.499702 -0.044929 0.403291 1.024570 0.776073 0.783630 0.050073 -0.651118 0.142257
number -0.400751 0.145052 0.712784 -0.168144 0.649879 0.086693 0.526482 0.344982 -0.225649 0.607985 0.048896 0.226540 -0.069805 -0.108740 0.272206 -0.023508 0.453399 0.385861 0.175814 0.126751 1.084185 0.270949 0.283745 0.251449 0.190532 -0.741948 0.512311 0.587103 -0.236961 -0.258042 0.367107 0.233845 -0.001732 -0.959245 -0.596263 0.181853 0.163906 0.683999 -0.803439 0.752466 0.444343 0.572785 -0.544040 -0.447408 0.851122 -0.393689 0.298959 0.054687 -0.656445 0.568596
government -0.162998 -0.152704 0.555123 0.749829 -0.050617 -0.191744 0.075101 0.117299 -0.083505 -0.720050 0.054687 0.088345 -2.062633 0.242130 0.138928 0.864251 -1.054989 -0.541041 -1.072909 -0.650213 0.203334 -0.676477 0.190140 -0.224869 0.034106 0.582560 -1.501764 -0.436485 -0.670678 -0.919767 0.887082 1.118068 -1.495918 -0.300136 -0.075675 0.246206 0.414841 0.827926 -0.021444 0.637142 0.169976 -0.227613 -0.257265 -0.008003 -0.126799 -0.062172 0.382621 -0.675402 0.197553 -0.135899
them -0.455247 -0.316989 0.096949 -0.890637 0.476489 0.800851 0.355423 -0.598496 -0.419162 -0.012109 0.426369 0.656654 -0.079522 -0.582751 0.274940 0.798414 0.123685 0.045043 -0.078847 -0.061195 0.796930 -0.169807 0.190447 -0.275520 -0.110671 0.165973 -0.059312 -0.505924 -0.038375 -0.174415 0.177221 -0.573394 -0.090552 0.134596 0.419800 -0.256315 0.688138 0.947864 -0.144913 0.096489 0.307288 -0.129853 -1.125456 0.119082 -0.518507 0.407938 0.330434 -0.566243 -0.595926 0.493633
m 0.770217 0.707618 -0.086112 0.312328 -0.853879 -0.800085 0.493976 -0.171104 -0.011138 0.612108 -0.140461 0.363395 0.350316 -1.446933 0.632523 -0.142723 -0.020181 -1.534908 -0.093060 1.022440 0.295954 -0.569954 -0.197398 0.019510 -0.423697 -0.559966 0.202102 0.348653 -0.056920 0.088147 -0.369966 0.341227 0.048952 -0.037768 -0.920476 0.830577 -0.297986 -0.643684 -0.466138 0.363921 0.492460 0.603176 -0.681446 0.526403 0.758830 0.397417 0.534494 0.460766 -0.498133 0.015550
later 0.447157 -0.006282 0.438406 0.614383 0.378326 0.380926 0.356119 0.006205 -0.065034 -0.346179 -0.069447 -0.318850 -0.367223 -0.255338 0.269479 0.716902 0.698665 0.496585 -0.350617 0.147655 -0.368964 -0.303155 -0.066523 -1.052995 -0.522905 -0.136353 0.566591 -0.343797 0.149460 -0.569483 -0.494716 -0.233118 -0.365877 0.210570 0.043046 -0.054971 0.005153 0.229706 -0.306747 -0.590090 0.257600 -0.117042 -1.292711 0.177139 -0.168562 -0.474750 0.741183 -0.098700 -0.044581 0.119351
since 0.169844 0.111302 0.182033 0.229614 0.481836 0.241491 0.342495 -0.091451 0.139192 0.122840 -0.113120 -0.233189 -0.900847 0.207874 -0.175999 0.690374 0.094095 0.197265 -1.015380 0.236681 0.218136 -0.188936 0.334098 -0.372024 0.021880 -0.168691 0.166763 -0.185854 0.002532 -0.080167 -0.119534 0.173141 -0.446924 -0.245684 -0.477083 -0.104037 -0.222448 0.126275 -0.297723 0.419870 0.531534 0.068740 -0.193884 -0.132468 0.010758 -0.009949 0.367713 0.607685 -0.375849 -0.146151
him 0.014977 -0.071836 -0.255408 -1.011422 0.061941 0.799922 0.705168 0.301434 0.150448 -0.285104 -0.021813 1.026784 0.068365 -0.838388 0.294970 0.701016 -0.154402 0.462875 -0.205995 -0.259239 -0.247829 -0.786782 0.125944 -1.125126 -0.607727 0.388162 -0.478108 -0.140430 0.183525 -0.122453 -0.082612 -0.647520 -0.498090 0.475347 0.581262 -0.475941 0.819496 0.234137 -0.194208 -0.273451 -0.396804 0.118109 -1.794011 0.416875 -1.120611 -0.015510 0.511744 -0.385421 -0.260766 0.332831
part 0.126103 -0.135457 0.279126 0.477397 0.584348 -0.057388 -0.011063 -0.187431 -0.220062 0.189325 0.203632 0.226633 -0.224451 0.269433 0.111792 0.665465 -0.195841 -0.260006 -0.558058 0.106563 0.061696 0.129274 0.272346 0.480620 -0.186010 -0.306211 -0.026439 -0.635419 -0.101299 -0.271449 -0.325290 -0.178783 -0.499711 0.203669 0.100540 -0.058571 -0.318961 -0.141417 -0.663834 0.186632 -0.015743 0.827698 -0.611437 -0.383926 -0.136318 -0.380360 -0.596233 0.681231 -0.101601 -0.173678
name 0.448511 -0.712411 0.347485 0.653467 0.429169 0.135936 0.827255 0.433688 -0.270847 -0.314138 -0.230239 -0.065258 0.484303 0.621821 -0.397497 1.045135 -0.226672 -0.021056 0.168101 -0.686684 -0.104009 -0.258055 0.137308 -0.432945 -1.318963 -0.562240 0.030510 -0.102552 0.597805 -0.006814 0.045802 -0.140023 -0.526090 -0.253951 -0.204090 0.020081 0.418263 -0.988797 0.772873 -0.400686 0.984711 1.178221 -0.929870 -0.237608 0.289705 0.523912 0.045774 0.954258 -0.784275 0.682711
c 0.878517 0.316800 -0.012689 0.066393 -0.754737 -0.366625 -0.233092 -0.115071 0.136883 0.454498 -0.568635 -0.488411 0.415299 -0.751319 0.431936 0.417172 -0.173167 -0.855136 0.304432 0.565833 -0.225672 -0.699334 0.116019 -0.012214 -0.468566 -1.290811 0.437006 -0.161173 -0.497475 1.116374 -0.838725 -0.364952 -0.343061 -0.725140 -0.939468 0.199548 -0.042847 -0.659237 -0.330904 1.193362 0.564922 0.454109 -0.047455 0.067035 1.056681 0.341638 0.121012 0.026310 -1.135762 -0.170318
century 0.366605 -0.548890 0.367877 1.085146 0.289347 0.002503 0.080244 0.850118 0.055284 -0.223737 -0.110814 -1.003352 -0.646904 -0.089270 0.576108 1.711195 0.398241 0.820414 0.212290 0.340480 -0.361018 -0.168998 0.788874 0.119458 0.051758 -0.055003 0.290292 -0.735387 0.046171 0.003785 -0.781000 -0.284460 0.347223 0.604073 0.207696 -0.026782 -1.142357 0.604825 -0.319643 0.945913 -0.172122 -0.235615 -0.977459 0.569964 0.221342 -0.269358 0.486019 1.933474 0.170025 0.482086
through 0.372850 -0.515504 0.124261 -0.214618 0.191395 0.744335 -0.523872 -0.780143 -0.478988 0.517396 0.039292 0.406732 -0.252162 0.027916 0.192483 0.643238 0.164810 0.099536 -0.373347 -0.434272 0.357035 -0.558587 -0.226645 -0.087905 0.273238 0.431572 -0.208116 -0.204094 -0.595157 0.066376 -0.109232 -0.623169 -0.297568 0.546488 -0.087215 -0.055807 0.280796 1.186092 -0.541305 -0.468939 -0.488722 0.031856 0.006258 0.090062 -0.027555 0.183683 -0.350380 0.329117 -0.315929 -0.106368
because -0.482336 -0.286511 0.429500 -0.588481 0.567142 0.419750 0.435561 -0.317796 0.230627 0.360192 -0.037530 0.065088 -0.197296 -0.337426 -0.329724 0.355854 0.044065 0.083880 -0.379685 -0.117178 0.862476 -0.586069 0.455087 0.117072 -0.342020 0.101446 0.400428 -0.446474 0.224941 -0.023994 0.083312 -0.231880 -0.210187 0.025935 -0.165473 -0.257814 0.184018 0.080619 -0.355868 0.099268 0.791830 0.247447 -0.354677 -0.256737 -0.316943 0.474622 0.060760 0.063860 -0.492321 -0.155991
x 0.029309 0.406269 -0.551366 -0.052412 -0.724271 0.287389 0.461854 -0.497071 -0.514009 0.788404 -0.501374 0.240734 1.167326 -0.120684 0.978114 -0.255121 0.413917 -0.583354 -0.589441 0.477104 0.743286 -0.285005 -0.894931 -0.015056 -1.553053 -0.835035 0.609706 0.523567 0.057873 1.003142 0.074893 0.074925 -0.199615 -0.756944 -1.310827 0.668214 0.242592 -0.701149 -1.188706 1.240600 1.249731 1.083738 0.541794 0.644736 1.995927 0.351573 1.228338 -0.418676 -1.058183 0.072927
university 1.186047 -0.346198 1.164730 0.000609 -0.273859 -1.254028 -0.627937 -0.877501 -0.388115 -0.645080 -0.953255 0.551202 -0.433689 0.479422 -0.493801 0.874977 -0.225577 0.448960 -0.159392 1.052785 -1.330168 -0.769641 0.007644 0.363031 -0.495706 0.797576 -0.445459 -0.298207 -1.085752 1.385396 -0.447607 0.586736 0.499095 0.057523 -1.324894 0.825741 -0.752710 -1.569319 -0.957277 -0.995551 -0.639803 0.377068 -1.270179 1.066118 0.735119 -0.288141 -0.479459 -0.415177 0.299113 1.006477
early 0.834416 -0.691044 0.026821 0.798310 0.689834 0.563243 0.255334 0.289300 0.104946 -0.254981 -0.027063 -0.500467 -0.690909 0.473996 0.257696 0.817615 0.619805 0.549113 -0.018517 0.526477 -0.382526 -0.621954 0.326449 -0.291614 -0.334762 -0.435165 0.888483 -0.342217 -0.253506 -0.012417 -0.253559 0.047292 0.347631 0.162791 0.284505 -0.196107 -0.841796 0.741900 -0.353663 -0.131309 0.206456 -0.197265 -0.838242 0.475584 -0.062395 -0.179615 0.326570 0.658306 -0.304593 -0.119329
life 0.515843 0.152064 -0.058585 -0.515130 0.372236 0.688400 0.525219 0.138744 0.348509 0.689021 0.610442 0.194222 -0.155610 0.413102 0.137606 0.496142 -0.045331 0.386071 0.207655 0.686897 -0.080544 -0.558739 -0.036310 0.285816 -0.843538 -0.087346 -0.075996 0.258174 0.450998 0.547883 -0.454041 0.333277 -0.660699 0.238864 -0.133675 -0.335259 -0.788071 0.780034 -0.701795 -0.506391 -0.644890 0.423567 -0.631760 1.203869 -0.922454 0.265986 0.123011 0.021455 -0.391507 0.133622
british 0.394118 -0.081036 0.601929 0.806722 -0.707111 -0.281447 0.192054 0.080395 0.218662 -1.173849 0.030291 0.965953 -1.005510 -0.082442 -0.138310 1.683321 0.066778 -0.258981 0.697755 0.067712 -0.194570 -0.146064 -0.768229 0.096661 0.014326 0.073436 -0.267040 -0.160935 -0.196466 -1.214474 0.539608 0.328857 -0.152827 -1.268053 0.740516 0.247410 -0.612987 0.175835 0.224392 0.340662 -0.248183 -0.629798 -1.263967 -0.300518 -0.073197 0.269158 -0.510441 0.730506 -0.053693 -0.551173
year 1.038136 0.642536 0.067709 0.837124 0.029123 0.409567 -0.228738 0.452002 0.269165 0.755530 -0.108090 -0.044683 -0.978940 0.141544 -0.146245 0.758446 0.264830 0.888936 -0.241863 0.269718 -0.353159 -0.165555 0.781340 -0.773250 0.261578 -0.203242 0.469865 0.764039 -0.260844 0.069061 0.036813 0.407266 -0.229141 -0.559606 -1.197355 0.274034 0.478513 0.733010 -0.313163 -0.526068 -0.002969 0.236410 -1.233141 -0.555957 -0.892668 -0.548889 0.125351 0.325452 -0.614647 0.505752
like -0.248759 -0.485046 -0.071046 -0.343002 0.654096 0.602678 0.354094 -0.436504 -0.272894 0.100931 -0.107901 0.047223 0.584164 0.017747 0.266558 0.002842 -0.407097 -0.739516 0.372517 0.149977 0.583398 -0.303077 0.097883 -0.131788 -0.226772 -0.302017 0.509826 -0.850921 0.169065 -0.336307 -0.157067 -0.273264 0.286333 -0.244716 0.208684 0.322367 -0.117463 0.340456 0.055490 -0.445761 0.513956 0.206889 -0.433624 0.379406 0.220183 0.583015 0.182183 0.160665 -0.527437 0.526279
same -0.067317 -0.356329 0.296518 -0.029164 0.209756 0.756184 0.542485 -0.388903 -0.163844 0.558422 0.376203 -0.200262 0.092722 -0.061227 -0.413989 0.198772 -0.339553 0.213658 0.003468 -0.269642 0.637747 -0.266023 -0.073630 -0.032449 -0.208595 -0.428159 0.540754 0.450684 -0.044515 -0.022179 0.026163 -0.214756 -0.148079 -0.014054 -0.629208 0.006117 0.313024 -0.038839 -0.671491 0.102596 0.076426 0.714549 -0.709632 -0.797765 0.323123 0.202472 0.354230 0.340621 -0.626804 0.248399
including 0.285104 -0.116247 0.583503 0.437752 0.742455 0.354049 -0.022094 0.030256 -0.293456 -0.298904 0.019446 0.439666 -0.234048 0.608398 0.578163 -0.198834 -0.005998 -0.742571 0.348185 0.511942 0.255565 -0.011809 0.035683 0.093531 0.355116 -0.581829 -0.375927 -0.264918 -0.579325 -0.463733 -0.181003 0.327509 0.066444 -0.810623 0.060880 -0.262562 -0.541688 0.415499 -0.078734 -0.558748 0.173474 -0.114645 -0.430017 0.639955 0.103528 -0.102888 -0.069818 -0.200556 -0.148633 0.254505
became 0.088282 0.011698 -0.275955 0.393170 0.042115 -0.132738 0.227203 0.051628 1.076869 -0.817664 -0.749850 0.013477 -0.890200 0.527489 0.359436 1.045569 0.132766 0.652808 -0.742601 -0.035540 -0.465210 -0.034340 0.055794 -0.135554 -0.303454 -0.097501 0.006257 -0.923079 0.228229 -0.443785 -0.132552 0.144512 -0.563714 0.203908 0.232094 -0.022869 -0.367494 -0.138730 -0.343752 -0.462597 -0.155111 0.895758 -0.886128 -0.161286 -0.073666 -0.029182 0.560558 0.225943 -0.499738 -0.165222
example -0.307174 -0.138989 0.197752 -0.220287 0.541070 0.687570 0.543563 -0.218505 -0.251830 0.647588 0.036970 0.027746 0.420229 -0.019342 -0.099681 0.137879 -0.542582 0.173566 0.145390 0.024393 0.588038 -0.602098 0.365623 0.395139 -0.209746 -0.698832 0.342783 -0.270971 -0.191389 0.195601 -0.100371 0.045343 -0.100486 -0.460363 -0.281290 0.132403 0.100404 -0.008786 -0.248400 0.679737 0.524802 0.215480 -0.079603 -0.261688 0.613639 0.961043 0.173455 0.094826 -0.504309 0.292843
day 1.071330 0.296683 -0.865304 0.825589 -0.062805 -0.450222 -0.370320 0.022101 -0.768351 0.128079 0.334741 0.287997 0.090884 0.434875 -1.315091 0.691958 -0.450517 0.191823 -0.588385 0.256291 -0.292363 -0.065034 1.134772 -0.350964 -0.023891 0.200847 0.518975 0.165478 -0.286872 0.402424 0.830129 0.424412 -0.163083 -0.099931 -0.381343 -0.321286 -0.500908 0.969947 -0.081805 -0.064896 0.041078 0.357843 -1.255380 0.011186 -1.216790 -0.143727 0.334067 1.044039 -0.709437 0.236552
each -0.049729 0.075652 -0.012307 -0.067204 0.253471 0.644365 -0.063002 -0.495935 -0.237597 0.825368 0.413953 -0.283897 0.122076 0.199969 0.110358 -0.061849 -0.495127 0.170371 0.111034 -0.934380 0.905283 0.523547 0.625179 -0.248748 0.015925 -0.464374 0.340605 0.810012 -0.724222 -0.109669 0.233091 -0.370749 -0.187374 -0.458840 -0.652997 0.684882 0.824901 0.854940 -0.923852 0.238182 -0.302047 0.461609 -0.670645 -1.058269 0.349664 -0.395404 -0.124222 0.324888 -0.629481 0.975169
even -0.650528 0.009616 0.394874 -0.200257 0.866456 0.789196 0.606880 -0.209223 0.347159 0.135956 -0.032514 0.205809 -0.184305 -0.268643 -0.051504 0.356296 0.026469 0.073846 -0.586258 0.469858 0.826971 -0.390508 0.642946 -0.097170 -0.101554 0.029508 0.405772 -0.493044 0.045909 0.133002 -0.023862 -0.040162 0.110382 0.149301 0.129495 -0.231422 0.136114 0.407459 -0.347984 0.121387 0.635937 0.048933 -0.675473 -0.213062 -0.234386 0.389449 0.370158 0.069820 -0.484834 -0.062079
work 0.183105 0.139014 0.313288 -0.489756 0.207551 0.752063 0.694469 -0.312484 0.069462 0.115952 0.470187 -0.039422 -0.792630 0.050378 0.441722 0.201906 0.325625 0.550810 0.512994 0.778210 -0.161054 -1.265861 -0.293727 -0.105760 -0.143743 -0.107385 0.470277 -0.645145 -0.259615 0.144387 -0.426987 0.340216 -0.423574 0.402609 0.647380 0.073848 -0.305967 0.495086 -0.925629 0.009945 0.020984 0.306102 -0.825266 -0.186180 -0.380149 -0.283453 0.231969 0.180346 0.245293 0.727903
language -0.280748 -0.096730 0.666312 0.746150 0.826907 0.838670 0.696969 0.135718 -0.802653 -0.927561 -0.859840 -0.028789 -0.468669 0.597541 -0.944275 1.422907 -0.269829 -0.214977 0.837312 -0.373097 -0.446909 0.299607 0.820522 0.503519 -0.043435 -0.872629 0.473477 -0.158119 -0.401591 0.499803 -1.199589 0.548510 -0.247256 1.183893 -0.181239 1.271044 -0.692318 0.107610 0.115806 0.678859 1.113411 1.203060 -0.007431 -0.477895 1.023555 0.857229 -0.746564 -0.227068 0.045992 0.311240
although -0.111296 -0.015305 0.753916 0.228190 0.790156 0.377720 0.374385 0.019120 0.346741 -0.024809 0.111007 -0.066170 -0.410539 -0.003442 -0.305948 0.487808 0.086768 0.207853 -0.597885 0.268998 0.395391 -0.229925 0.589159 -0.101764 -0.183368 -0.221574 0.094939 -0.308876 0.053692 -0.310175 -0.200477 0.064560 -0.168858 0.034067 -0.052609 -0.238765 -0.088149 0.203087 -0.167792 0.013591 0.755752 0.056506 -0.606042 -0.275789 -0.041876 0.228545 0.274683 0.451018 -0.220730 -0.156754
several 0.168815 0.023283 0.641933 0.492890 0.824125 0.650641 0.154624 -0.248052 -0.255970 0.435553 -0.075951 -0.119139 -0.367843 0.271451 0.403996 -0.158375 0.207524 -0.054869 0.064183 0.357463 0.369912 0.199814 0.637165 0.067675 0.056762 -0.475897 0.154540 -0.022746 -0.641352 -0.857114 -0.404203 0.109982 0.016707 -0.854696 0.131335 -0.009997 -0.093527 0.975663 -0.138581 -0.517952 0.364142 -0.466556 -1.037807 0.057217 0.562074 -0.375607 0.300831 -0.284638 0.020220 0.724622
form -0.267485 -0.298495 0.825147 -0.109586 0.501957 0.541599 -0.128845 -0.326166 0.051435 1.048061 -0.011405 -0.627382 0.339960 0.051438 0.362939 1.065991 -0.598255 -0.116687 -0.445509 -0.316006 0.390525 -0.350917 -0.093959 0.099220 -0.370962 -0.678689 0.325392 -0.681033 0.003470 0.051436 0.060050 0.492372 0.239658 -0.046212 0.007234 0.528515 0.088927 0.406411 -0.233133 0.433489 0.113513 0.754121 0.302281 -0.401690 0.733124 0.643344 -0.009515 0.414107 -0.312773 0.573282
john 0.549011 0.511068 -0.418279 0.177340 -0.938076 -0.265059 0.479936 -0.115797 0.465960 -0.434088 0.096356 0.133072 0.757752 -0.160331 -0.043189 1.294980 -0.056505 -0.286492 0.893993 0.371102 -1.342267 -1.031711 -0.268655 -0.389646 -0.489108 -0.556820 0.086489 -0.626731 -0.569586 0.302140 0.113341 -0.091045 -0.894862 -0.793903 -0.137250 -0.326515 -0.810616 -0.689172 -0.413857 -0.440090 -0.101640 -0.615088 -1.776856 0.952394 -0.292626 0.045792 0.381560 0.066402 0.253236 -0.341098
u 0.941220 0.731445 0.156410 0.674972 -0.237670 -1.226671 -0.346829 -0.162350 -0.270726 -0.104129 -0.483343 0.038231 -0.427191 0.070348 0.766429 -0.340075 -0.869341 -0.575171 -1.015819 0.578384 -0.058722 -0.076367 -1.162070 -0.094540 0.004752 -0.073434 -0.427004 0.201962 0.018154 0.242332 0.272079 0.281464 -0.882970 -1.307826 -0.590948 0.607526 0.571446 -0.228148 -0.363878 0.810174 0.880002 -0.273255 -1.299124 0.134942 0.593178 1.043923 0.122021 0.082203 -0.299268 -0.204274
national 0.946438 -0.663675 0.185481 0.159885 0.262771 -0.076403 -0.796279 -0.364396 0.000733 -0.257522 -0.629374 -0.116523 -1.060275 0.631293 -0.366081 -0.207192 -0.937865 -0.673093 -0.382632 -0.137203 -0.624875 0.144642 0.180456 -0.325115 -0.044455 0.419501 -1.223379 0.337179 -1.151215 -0.234442 0.783414 1.944586 -0.075307 -0.647405 -0.732790 0.096063 -0.886287 -0.502892 0.276750 0.340627 -0.386570 0.130706 -0.491316 0.002688 -0.674742 -0.044034 -0.903979 0.288735 -0.257670 -0.169842
very -0.367148 -0.252049 0.365013 -0.466765 0.766855 0.788494 0.282262 0.065582 0.947982 0.644541 -0.152893 -0.135185 -0.384062 -0.128024 -0.288062 -0.034517 0.040153 -0.342340 -0.467040 0.469248 0.427540 -0.776060 0.872293 0.452340 -0.239996 -0.453147 0.724301 -0.729288 0.175933 -0.218905 0.068935 -0.232225 0.277440 0.422877 0.480657 0.247806 -0.158881 0.315456 -0.535644 -0.017235 0.357109 0.177408 -0.559655 -0.313024 -0.011329 0.623249 0.058156 0.025733 -0.657237 -0.298351
much -0.550685 -0.000190 0.541538 -0.128374 0.850021 0.282654 0.783327 0.609395 0.051176 0.492551 -0.303253 0.138036 -1.009831 -0.441003 -0.191332 0.395226 0.103503 -0.262080 -0.474318 0.533059 0.795385 -0.811543 0.639651 0.414983 0.212823 0.119195 0.521154 -0.563010 0.305309 0.022106 -0.042781 -0.413700 -0.226837 0.757564 0.663820 0.026280 0.235053 0.254871 -0.780607 -0.247288 0.253485 0.136592 -0.612737 0.208049 -0.200893 0.203856 -0.326661 0.146434 -0.275294 -0.067958
g 0.380491 0.338300 0.282988 -0.126419 -0.722675 -0.328628 0.226228 -0.074891 -0.109978 0.396592 -0.108464 0.026954 0.650674 -0.281940 0.245889 0.209476 -0.755884 -1.087344 0.345069 0.570573 0.186155 -0.524856 -0.238334 -0.168362 0.103314 -1.081512 0.256790 -0.369088 -0.324202 0.497610 -0.498019 -0.039574 -0.080713 -0.830272 -0.756574 0.462672 -0.472724 -0.357521 -0.696573 0.789134 0.682701 0.898889 0.093554 0.386125 0.793329 0.407950 1.035816 -0.011212 -0.741665 0.223305
french 0.525451 0.105388 0.539142 0.855214 -0.505288 -0.641805 0.088428 0.072114 -0.101802 -0.556589 -0.513936 0.324158 -0.559168 0.197066 0.254333 1.448696 -0.478784 -0.565371 1.238683 0.169531 -0.814304 -0.256526 0.068465 -0.111929 0.456501 0.053526 -0.837901 -0.339396 0.252069 -1.203545 -0.997858 0.932088 -0.126154 0.397407 0.788764 0.706561 -0.163445 0.397311 0.674844 1.114304 -0.348361 -0.167968 -1.154501 -0.488196 0.596795 1.190797 0.826889 1.153752 -0.529101 -0.039261
before 0.720731 0.185548 -0.207005 0.247893 0.054496 0.601111 -0.038905 -0.319856 -0.403543 0.229021 -0.059695 0.282181 -0.187372 -0.059879 -0.109626 0.949895 0.183247 0.850604 -0.935226 0.034645 0.073495 -0.194123 0.416654 -1.105687 0.044024 0.201103 0.479856 0.103907 0.089680 -0.127445 -0.439417 -0.401895 -0.040763 0.278738 -0.098180 0.386979 0.579409 0.549701 -0.347976 -0.044744 0.228860 -0.025732 -0.993506 -0.231011 -0.855850 0.083072 0.568563 0.095271 -0.363473 0.121767
general 0.104733 -0.147503 -0.121048 0.665275 -0.438949 -0.383778 0.381760 -0.048444 0.345933 -0.129155 -0.310327 0.534319 -0.125719 -0.384994 -0.218981 0.681599 -0.550489 0.548810 -0.113367 -0.218735 0.106392 -0.392120 -0.444312 0.217430 0.225660 -0.457202 -0.475596 -0.235051 -0.990718 0.335302 -0.026533 0.511758 -1.091837 -0.570449 0.168628 -0.056967 -0.813705 -0.206402 -0.393137 -0.003575 0.117369 -0.489907 -0.595640 -0.472208 0.139105 0.532121 0.538773 -0.365045 -0.968003 0.107872
what -0.453339 -0.634328 -0.531724 -0.688800 0.569572 0.734168 1.103292 -0.367130 -0.745789 -0.149105 1.022884 0.409250 -0.121951 -0.538077 -0.608209 0.388199 -0.389167 0.403568 -0.332646 0.412279 0.183497 -0.874533 0.326828 0.361795 -0.452810 0.114270 0.543483 -0.504612 0.320950 0.471705 -0.500542 -0.029913 -0.726275 0.360711 -0.131188 0.231685 0.151924 -0.041670 -0.035586 0.487937 0.257773 0.230713 -0.873811 -0.143796 -0.453703 0.309397 -0.295729 0.253675 -0.175023 0.298045
t 0.031783 -0.109310 -0.396887 -0.494154 -0.156257 -0.359989 0.733111 -0.307286 -0.516849 0.195560 0.510192 0.510499 0.202549 -0.575177 -0.085395 0.157791 -0.201061 -1.403544 -0.287746 1.151689 0.273456 -0.987919 0.244212 -0.886281 -0.469298 0.410586 0.990834 -0.667164 0.513588 0.803749 -0.550724 0.363515 -0.282161 -0.295188 -0.630524 0.974438 0.710216 -0.767399 -0.542531 0.941656 0.529517 0.238766 -0.251326 -0.034066 0.358294 0.758615 0.659301 0.179329 -0.797817 0.213695
against -0.075390 -0.028955 0.051591 0.293114 0.595606 0.503010 -0.116609 -0.178755 -0.440827 -1.019780 -0.297958 0.428858 0.170191 -0.863360 0.224808 0.230378 -0.388173 -0.093420 -1.130854 -0.847585 -0.078244 0.239167 -0.542078 0.107006 0.302157 -0.084823 -0.485021 -0.470397 -0.217069 -0.555892 -0.280597 0.602254 0.125506 0.021656 -0.174824 -1.102525 0.775766 0.717504 -0.924826 0.751184 -0.436165 -0.279619 -0.975836 0.696564 -0.894994 0.552663 0.507426 -0.284510 -0.078672 -0.930810
n 0.229122 0.536922 0.321238 0.250271 -0.555947 -0.909927 0.124576 -0.131794 -0.512438 0.793015 -0.733353 0.335728 1.243297 -0.848674 0.392713 0.573581 -0.274823 -0.825750 0.049384 0.614221 0.048893 -0.576858 -0.095950 0.063725 -0.483282 -0.636682 0.200206 0.198054 0.374475 0.247380 0.064571 0.444159 -0.487714 -0.813234 -0.936553 0.998770 0.363777 -0.343048 -0.538745 1.529989 0.133888 1.067438 0.185905 -0.192742 1.298847 -0.248790 0.909750 0.130218 -1.335734 0.672225
high 0.146273 0.040555 0.630245 -0.036244 -0.167420 0.339118 -0.590645 0.285839 0.418455 0.116427 -0.783218 -0.379436 -0.559463 -0.282770 -0.225589 -0.099561 -0.206059 -0.871079 -0.523884 0.198836 1.148583 -0.919608 0.907877 -0.108421 0.091400 -0.269298 0.026086 0.168996 -0.734640 0.066421 -0.145061 -0.673941 0.798255 -0.132095 -0.476957 -0.423783 -0.304100 -0.374798 -1.158535 -0.313003 -0.403991 0.021487 -0.304526 -0.206909 0.030210 0.411540 -0.898666 -0.289544 -0.340267 -0.535165
links 1.343767 -0.291052 -0.203389 -0.355943 -0.179438 -0.322114 0.651247 0.067213 -1.421184 0.004782 0.111118 0.792133 -0.527454 1.068043 -0.472087 -0.337224 -0.381049 -0.398363 0.436282 -0.197840 -1.104287 -0.220086 -0.075139 0.461210 0.125406 -1.317253 -0.159947 0.134575 -1.095815 0.240170 0.070047 0.661178 0.105725 -0.358552 0.027479 0.495822 -0.542168 -0.694094 0.453983 -0.085799 -0.362226 -0.599279 0.238729 1.495100 0.531280 0.366969 -0.624297 0.121741 -0.654499 0.079108
could -0.281519 -0.229532 0.116445 -0.420563 0.553488 0.707025 0.744475 -0.895934 -0.229267 -0.015550 0.196421 0.179223 -0.612772 -0.926006 0.047461 0.508115 0.491163 -0.139927 -0.296401 -0.402458 1.054265 -0.476093 0.328714 -0.487061 -0.408385 0.426615 0.037625 -0.187003 0.065530 -0.088227 0.044965 -0.267088 -0.194721 0.399468 0.236492 -0.147659 0.421679 0.261229 -0.402092 0.629215 0.496860 -0.391019 -0.673531 -0.251807 -0.392953 0.615327 0.026323 -0.389295 -0.570149 0.440919
based 0.466333 -0.403640 0.614509 0.203026 0.754564 0.730641 0.217650 -0.266186 -0.110602 -0.712239 -0.043587 -0.363773 -0.239782 0.031071 0.043658 -0.091669 0.166405 0.351070 0.149158 -0.125662 0.207564 -0.293545 -0.070869 0.366805 -0.082056 -0.480785 0.395109 -0.164534 -0.966831 -0.322410 0.157424 0.390133 -0.466827 -0.074890 -0.068204 0.124072 -0.133735 -0.447500 -0.404388 -0.321580 0.385861 0.248758 0.240269 -0.026470 0.730686 0.476774 -0.253042 0.253954 -0.300578 0.269174
those -0.851024 0.028277 0.598467 -0.392848 0.767658 0.878373 0.322612 -0.754194 -0.136430 -0.000793 0.372750 0.148563 -0.088864 -0.000581 -0.111061 0.491313 -0.384532 -0.073246 -0.075288 0.333043 1.038450 0.117651 0.396819 0.071115 0.035345 -0.161151 -0.394438 -0.368577 -0.220092 0.148741 -0.270059 -0.122733 0.193139 -0.009841 -0.306641 -0.696719 -0.053833 1.207749 -0.092743 -0.017198 0.556177 -0.172261 -1.023022 0.057706 -0.135517 0.321887 0.254241 -0.457348 -0.434675 0.337491
now -0.076459 -0.272927 0.208147 0.111268 0.444179 -0.214515 0.124028 -0.494180 0.223690 -0.335067 0.150135 0.195820 -0.257256 0.264753 -0.113166 0.529723 0.427871 0.034009 -0.853416 0.565014 0.128613 -0.186328 0.723334 0.070909 -0.585421 0.135519 0.038794 -0.861634 0.168327 -0.053908 -0.125828 -0.181412 -0.084171 -0.101738 -0.202860 0.544120 -0.164625 -0.361877 -0.013675 0.220642 0.549177 0.373573 -0.776499 0.102057 0.203949 0.049407 -0.390126 0.562320 -0.241732 0.356920
second 0.673619 0.637210 -0.247378 0.704550 -0.051690 -0.091125 0.178193 -0.037237 0.233114 0.763785 -0.376631 0.114011 0.048751 0.095201 0.545382 0.755840 0.200139 0.657081 -0.470098 -0.858705 -0.109602 0.108528 0.114623 -0.391033 0.345437 -0.455523 0.496425 0.335463 -0.219509 0.195434 -0.047756 0.030816 -0.371904 -0.112211 -0.280977 0.063168 0.243841 0.240854 -0.863902 0.630211 -0.424338 0.617664 -0.939270 -0.153702 -0.092686 0.172713 -0.244048 1.149460 0.086316 0.185270
de 1.382412 -0.157066 0.637690 0.583529 -0.707621 -0.524884 -0.076758 -0.425770 -0.128499 0.119296 -0.791395 0.106085 0.501881 -0.049192 -0.130042 0.497489 -0.203684 -1.211196 0.291519 0.663836 -0.973341 -0.600245 0.373285 -0.250602 -0.233508 -0.021874 -1.292686 -0.452474 0.116756 -0.254322 -1.064633 1.288929 -0.905675 0.479867 0.501438 -0.164878 -0.352976 -0.541335 0.263680 0.706404 -1.340221 0.584868 -0.526637 0.486065 0.569491 0.127901 1.189189 0.748129 -0.621822 0.916191
music -0.260997 -0.524589 0.451161 -0.303045 0.928185 0.329426 0.170328 0.081863 -0.797399 -0.790233 -0.169937 0.011242 0.343486 1.197694 0.154212 0.107075 0.050057 0.155928 0.640226 1.690225 -0.503680 -1.652647 -0.159836 -0.477248 0.269908 -1.214482 1.331733 -1.182110 -0.405699 0.243480 0.170881 0.778489 0.458872 0.381650 0.415057 0.118534 -0.288155 -0.140547 -0.142855 -0.464891 -1.344184 0.385947 -0.653962 -0.777249 0.448150 -0.647018 -0.848737 0.710101 -0.815869 0.020837
another 0.071906 -0.176527 0.051201 -0.145127 0.490706 0.657207 0.487889 -0.278649 0.049798 0.587227 -0.072209 0.282386 0.222950 -0.153831 -0.024399 0.214520 -0.000223 0.768327 0.077667 -0.729911 0.054057 -0.389875 0.389590 0.154809 -0.244802 -0.427071 0.474252 -0.079028 -0.014216 -0.319214 0.051946 0.034954 -0.440743 -0.078718 0.215974 -0.110393 0.476135 -0.316443 -0.393855 0.216781 0.037061 0.675462 -0.573416 -0.138060 0.119790 0.415368 -0.026314 0.502208 -0.304751 0.067333
large -0.082183 -0.316633 0.709395 -0.384938 0.515747 -0.104426 -0.185840 0.418636 0.277015 0.566762 -0.383661 -0.192813 -0.628827 -0.004203 0.604995 -0.322811 0.637858 -0.517231 -0.074655 -0.053408 1.140668 0.170954 0.903570 0.585052 0.210602 -0.093391 -0.159602 -0.292162 -0.227877 -0.885326 0.343216 0.154098 0.033077 -0.176223 0.335718 0.650864 -0.625195 0.565074 -0.789176 0.245705 0.471294 0.280376 -0.454317 0.411800 -0.046742 -0.060624 -0.973450 0.066657 -0.578680 -0.017808
she 0.337995 -0.230637 0.188013 -0.821446 -0.027052 1.093530 0.347758 0.112756 0.751274 -0.265921 0.270169 0.613733 -0.459049 -0.038466 -0.655332 0.318493 -0.170688 0.326239 -0.155663 0.649719 -0.207906 -0.688284 0.110163 -1.175687 -1.284399 0.355589 0.525041 -0.153343 1.065036 -0.323562 -0.003793 -0.187942 -0.523250 0.407461 -0.127353 0.192665 1.023108 -0.081772 -0.349133 -0.416764 -0.649494 0.644375 -1.728237 0.150901 -0.667839 -0.046698 0.595202 0.153412 0.307014 0.048797
f 0.292794 0.763069 -0.154127 -0.141207 -0.967307 -0.872024 -0.177692 0.362637 0.012799 0.177816 -0.766096 -0.085995 0.804718 -0.839857 0.946780 -0.122393 -0.806603 -0.792214 -0.420002 1.241968 0.139672 -0.380596 -0.467400 -0.650635 -0.245188 -0.876542 0.541851 0.049072 -0.537998 0.893517 -0.073333 -0.043221 -0.318473 -1.244611 -0.742799 0.674163 -0.433503 -0.716573 -0.779338 1.508397 0.544386 0.293372 -0.035661 0.112631 1.285076 0.323790 0.728655 0.392877 -1.268939 -0.231368
external 1.366338 -0.269978 -0.236818 -0.218995 -0.140169 -0.106343 0.505114 0.093971 -1.239513 -0.015317 0.067842 0.457076 -0.370250 0.872105 -0.386579 0.097742 -0.307573 -0.453584 0.184985 -0.190864 -0.749976 -0.093455 -0.102259 0.333830 0.101082 -1.292798 -0.180711 0.176205 -0.870401 0.158579 0.259461 0.532696 0.263914 -0.363797 -0.075142 0.190536 -0.671155 -0.672125 0.124277 0.027630 -0.434485 -0.478223 0.568779 1.163894 0.382390 0.461377 -0.492632 0.121115 -0.802993 0.135118
german 0.187541 0.829844 0.148132 0.098702 -0.742039 -1.027697 0.861234 0.872540 -0.425820 -1.293148 -0.447649 0.000309 -0.699596 -0.273591 0.445310 0.974483 -1.195414 -0.463905 1.025035 -0.563284 -0.617430 0.048083 0.242812 0.271065 0.371329 -0.369185 0.050667 -0.612172 -0.101498 -1.173406 -1.013420 0.569879 0.540499 0.403566 0.300264 0.488594 -1.090564 0.353654 -0.102150 0.380581 0.203061 -0.055225 -1.359023 -0.539007 0.029946 0.543538 0.357497 -0.042767 -0.986078 -0.573240
different -0.595590 -0.517627 0.798568 -0.180270 1.294730 1.007130 0.053988 -0.502667 -0.627654 0.353997 0.134884 -0.454492 0.117942 0.104436 -0.500914 0.121437 -0.554827 -0.139407 0.427193 0.170357 1.041925 0.262279 0.105452 0.450797 0.299421 -0.533982 0.754353 0.295962 -0.833403 -0.109028 -0.290310 -0.411652 0.346276 -0.030287 -0.342073 -0.097405 -0.032123 0.684626 -0.440577 -0.503005 0.820399 -0.303614 -0.355759 -0.685620 1.116588 0.364544 0.594395 -0.209265 -0.718326 0.888330
modern 0.309333 -0.577273 0.828041 0.736620 1.274779 0.108900 0.626597 -0.047539 -0.245235 -0.584566 0.041558 -0.194611 -0.385320 -0.257455 0.143466 0.764383 -0.109834 0.197793 0.221571 0.268479 -0.056629 -0.401088 0.363839 0.552149 -0.176135 -0.280826 0.736534 -0.632278 -0.474927 -0.063719 -0.206895 0.101082 0.914093 0.509951 0.302599 0.042825 -0.917514 -0.017317 -0.095150 0.044863 0.519782 -0.163260 -0.109356 0.269732 0.447803 0.472034 0.144711 1.021299 0.123940 0.365383
great -0.025745 -0.506331 0.118801 0.235223 -0.104555 0.626863 0.252763 0.888078 -0.405487 1.011364 -0.381225 0.539370 -0.286746 -0.458233 0.394496 0.829629 -0.328058 -0.280876 0.450196 0.028287 -0.472883 -0.108042 0.404567 0.596148 -0.259298 0.657062 -0.033088 -0.248104 -0.198704 -0.442808 -0.304932 -0.399582 -0.267123 0.282248 0.500601 -0.760700 -0.846213 -0.061752 -0.570660 -0.497423 -0.034397 0.387690 -1.183446 0.642689 -1.110951 -0.159032 -0.353924 0.767082 -0.373294 -0.044395
do -0.474297 -0.290949 0.273991 -0.649853 0.732681 0.372489 0.751518 -0.792300 -0.929429 0.108505 0.840135 0.471029 0.030481 -0.220214 -0.516400 0.487631 -0.370326 -1.063571 -0.040161 0.636748 0.904846 -0.140303 0.636647 -0.277188 -0.184100 0.675448 0.516462 -0.486411 0.018049 0.824632 -0.273541 0.500294 -0.044805 -0.141734 -0.178005 -0.203489 0.677815 0.235873 0.122731 0.780641 0.445910 -0.158752 -0.474925 -0.064649 -0.161601 1.020633 0.244736 -0.280701 -0.511179 1.059807
common -0.141824 -0.486622 0.869650 0.317869 0.597480 1.089631 0.046651 -0.337358 0.341079 0.292176 -0.162534 -0.190497 0.149740 0.420384 -0.391871 0.384978 -0.234354 0.032164 0.362140 -0.265091 0.722720 0.006497 0.418193 0.835590 0.110393 -0.758218 0.013425 -0.435381 -0.448615 0.293084 0.195301 -0.066301 0.474440 -0.005796 -0.216318 -0.169295 -0.185295 -0.034946 -0.000324 0.184365 1.003608 0.548220 -0.064796 -0.108641 0.000837 1.237513 0.134071 0.478628 -0.554529 0.143771
set -0.210337 0.362031 0.205563 -0.311798 -0.157509 1.214916 0.516734 -0.780632 -0.646126 -0.203878 0.335863 0.108802 0.573784 -0.497172 0.942899 0.050331 -0.291389 0.511647 -0.130051 0.115171 0.204771 -0.095146 -0.296640 -0.136961 0.029750 -1.109124 0.677031 0.491923 -0.779828 -0.298174 0.369029 -0.464940 -0.358158 -0.395247 -0.076704 0.726077 -0.159724 0.169077 -0.519669 0.747643 0.513815 0.954750 -0.387300 -0.486692 0.373224 -0.383253 0.141182 -0.253675 -0.875325 0.352066
list 0.573680 0.173902 0.003681 0.460416 0.956846 -0.167675 0.802611 -0.149625 -1.290995 -0.271239 -0.122711 0.674241 -0.418746 0.887001 0.353297 -0.653942 -0.695565 -0.284219 0.654830 0.065410 -0.431342 0.304983 0.012075 0.664178 -0.277390 -1.180810 -0.270436 0.078984 -0.265793 -0.094750 0.064574 0.304476 0.467326 -1.602920 -0.104699 0.475621 -0.452547 0.051115 0.639741 0.303590 -0.093346 -0.679746 0.085912 0.306412 0.412123 0.235685 -0.598144 0.293233 -0.745441 0.890973
south 0.053030 -0.447274 0.321129 1.014645 0.422047 -0.845328 -1.474746 -0.622199 -0.064521 -0.091526 -0.730700 0.887316 0.282240 -0.134848 -0.227516 1.009875 -0.036505 -0.640232 -0.879786 0.243598 -0.522770 -0.209964 0.379422 1.144445 0.724487 0.419774 -0.584929 -0.192985 0.003950 -0.590199 -0.237173 -0.391857 0.045201 -0.338858 -0.863023 1.117734 -0.177169 0.200208 0.009637 -0.390384 0.069203 0.482060 -1.242049 0.452914 0.390127 -0.374434 -0.931807 0.487133 -0.709428 -0.455867
series 0.673320 0.471892 0.018969 0.084766 0.032276 1.840954 0.721550 -0.002746 -0.255580 -0.233455 -0.386918 -0.021029 0.481304 0.163031 0.674823 -0.138781 0.688194 -0.462479 -0.691242 0.175816 -1.057771 0.234179 -0.438782 -0.305743 -0.243091 -0.169419 1.395667 0.433714 -0.302361 -0.925224 -0.372721 -0.114538 -0.203275 -1.422842 0.103008 0.057617 -0.052322 0.271357 -1.475667 -0.088023 -0.116289 0.104558 -0.455667 0.304658 0.078132 -0.258491 0.070675 0.394780 0.295719 0.308394
major 0.299241 -0.305332 0.233613 0.101422 0.941823 -0.541108 -0.185446 0.109449 0.303740 0.525050 0.034931 -0.070701 -0.461429 0.691171 1.111191 -0.401762 -0.352958 -0.184270 0.120951 0.244064 -0.576416 -0.062017 0.705549 0.614372 0.930524 0.433444 0.291271 -0.485170 -1.083683 -0.233422 -0.876998 -0.074716 -0.760836 -1.243653 -0.049874 -0.677347 0.013079 0.185742 -0.555774 -0.134002 0.106720 0.249524 -0.492757 -0.118924 0.055322 -0.034899 -0.112227 0.646332 -0.424012 -0.425678
game 0.290536 0.513287 -0.157681 0.114366 0.885284 1.503298 0.948696 -0.242590 -0.115724 -0.728082 -0.442649 0.085381 0.530407 0.256110 0.208500 0.105399 0.579760 0.270155 -0.427515 -0.778823 -0.241442 0.168358 0.437954 -0.148823 0.696718 -0.169874 1.669494 0.251932 -0.755605 -0.494882 -0.554308 0.179152 0.486554 -1.140070 0.024028 0.180008 0.955652 -1.186968 -1.362183 -0.764677 -0.196300 0.116633 0.069857 0.093998 -0.822621 -0.074517 -0.448746 0.495209 -1.038100 0.584828
power -0.102220 -0.487383 -0.172662 0.368199 -0.135049 0.403148 0.444175 0.332963 0.049932 0.237905 -0.176808 -0.223106 -1.429851 -0.343317 0.622892 0.522925 0.009013 -0.353238 -1.040433 -0.611598 1.129450 -0.373424 -0.287501 0.056414 0.101754 0.054027 -0.334546 -0.214612 -0.136523 -0.111075 0.971292 -0.073587 -0.719180 0.070998 -0.504549 -0.970982 -0.447595 0.477913 -1.020538 0.212620 -0.728158 0.033031 0.450998 -0.072369 -0.444410 0.632941 0.111880 0.211422 -0.896740 0.534313
long 0.484234 -0.291180 0.397825 0.889297 0.387116 0.559042 -0.035476 -0.095892 0.529164 1.082385 0.249938 0.177689 -0.511658 -0.244099 0.143317 -0.172589 0.235510 -0.767799 -0.020297 0.156986 -0.017780 -0.521528 0.364492 0.080569 -0.172456 0.246218 0.480447 0.193483 0.003702 -0.098778 0.161973 -0.169955 0.343068 0.211960 0.225487 0.722456 0.427172 0.798324 -0.075692 -0.028488 0.404914 0.317018 -1.115685 -0.048959 -0.388865 0.367779 0.327260 0.598592 0.076389 -0.380681
country -0.094010 -0.165257 0.029456 0.113435 1.338664 -0.561868 -0.080223 -0.206677 -0.222853 -0.473743 -0.165686 0.315482 -1.134302 0.841512 0.182848 0.534722 -0.451615 -0.802214 -0.691867 0.644652 -0.256568 -0.387194 0.133505 0.051163 0.499792 -0.349294 -0.616279 0.096441 0.166254 -0.284364 0.333843 0.426016 -0.734145 0.009646 -0.327128 0.581886 0.479327 0.413550 0.865950 0.059620 -0.520350 0.513511 -0.853304 -0.212486 0.011951 -0.443976 -0.961958 0.674751 -0.702259 -0.612056
king 0.050375 0.619679 -0.016080 0.384622 -0.742752 0.456774 0.592281 0.352168 -0.545243 -0.330410 -0.138678 0.797875 0.099266 -0.433380 0.469601 2.082744 -0.362119 -0.309584 -0.099465 -0.140683 -0.818181 0.376586 0.562991 -0.713296 -1.014424 -0.682569 -0.391220 -0.721047 0.272050 -0.897299 -0.173685 -0.608022 -0.226477 -0.213213 -0.025404 -1.135795 -0.157764 -0.796879 -0.291511 0.225754 -0.473847 0.498576 -1.180556 0.820529 -0.714401 -0.383575 0.702507 -0.194837 -0.087922 -0.115382
law 0.312170 0.148696 1.212450 -0.077002 -0.271912 0.330468 0.678811 -0.622851 -0.602075 -0.210019 0.801024 -0.025685 -0.774499 0.187626 0.052229 1.334197 -1.085822 1.203937 0.097939 0.521207 0.453284 0.202661 -1.419267 0.254064 -0.580114 0.169713 -1.485928 -0.187206 -0.880650 0.387907 -0.179947 0.058501 -0.208672 -0.284413 -1.054391 0.141023 0.648283 -0.377397 -0.194590 -0.212558 0.256711 0.170861 -0.155585 -0.309721 -0.545603 1.182069 0.358084 0.327088 0.298073 -0.321691
group -0.091034 -0.539879 0.217811 -0.185227 0.200577 -0.047623 -0.423025 -0.064310 0.128982 -0.451029 -0.082768 0.350714 0.380010 0.348386 -0.146897 0.044984 -0.177104 0.341533 0.022316 -0.280538 0.966378 0.120285 -0.637666 0.110888 0.148877 -1.296600 0.708444 -0.711862 -0.147220 -0.049671 -0.258826 1.207098 -0.471404 -0.622994 -0.293198 0.502695 -0.302866 0.449602 0.053587 0.784212 0.036835 1.214118 -0.741712 0.235817 0.878567 -0.606065 -0.409567 -0.269827 -0.757808 0.053692
film 0.457863 0.831251 -0.216221 -0.427232 -0.102650 1.210937 0.102995 0.148091 -0.433465 -0.483954 0.688430 0.634107 -0.241838 1.072862 0.434644 -0.040709 -0.324664 -0.314622 0.130483 0.764773 -0.925308 -1.656305 -0.319000 -0.636074 -0.242455 -0.251279 1.102491 0.574052 0.641237 -1.462438 -0.130405 0.466881 0.201616 -0.740783 0.635337 0.299847 -0.672878 -0.480773 -0.874432 -0.887952 -0.163122 -0.426007 -0.927958 -0.262264 0.523873 0.143685 -0.625920 0.621723 0.358420 0.064915
still -0.550112 -0.045025 0.444402 -0.075255 0.556078 0.337331 0.505816 -0.320784 0.487323 -0.195617 0.295199 0.160555 -0.748384 0.262445 -0.225426 0.431869 0.408920 -0.147172 -0.770296 0.334818 0.532752 -0.180592 1.186997 0.121792 -0.477953 -0.078060 0.106711 -0.788314 0.047537 0.118673 0.115668 -0.079951 0.319633 0.120139 0.328490 -0.181522 0.339852 0.248500 -0.145379 0.263482 0.485839 0.017161 -0.603441 -0.287282 -0.275634 0.020538 -0.046578 0.383303 -0.327336 -0.216654
until 0.723393 -0.038288 0.103348 0.671990 -0.303438 0.225031 -0.202297 -0.085941 0.310813 -0.111839 0.308286 -0.125752 -1.107502 0.163058 0.096003 1.410688 0.462328 0.582287 -1.118600 0.410385 0.053530 -0.025119 0.511340 -0.658264 -0.155737 0.391438 0.323530 -0.309520 0.124501 -0.241333 -0.254651 -0.210522 -0.176722 0.205181 -0.003032 0.444862 0.412805 0.390443 -0.519845 0.418985 -0.042946 0.003966 -0.635198 -0.337117 -0.866031 -0.278501 0.439152 0.246362 -0.527434 -0.258811
north 0.316569 -0.446847 0.414572 0.768977 0.161970 -0.759943 -1.051811 -0.599893 -0.226759 0.092178 -0.893781 0.468896 0.052409 -0.374717 -0.286404 0.858876 0.065484 -0.655160 -0.675638 0.027385 -0.460080 0.130624 0.232490 1.206133 0.328759 0.639926 -0.383671 -0.231460 -0.408505 -0.357164 -0.452446 -0.790268 0.102052 -0.358256 -0.572977 0.940471 -0.220337 0.226030 -0.103381 -0.743402 0.157728 0.403613 -1.434533 0.561022 0.501806 -0.642850 -0.909224 0.860357 -0.866154 -0.601954
international 1.276793 -0.138606 1.014622 -0.339355 0.045487 -0.001968 -0.158770 -0.590307 -0.530806 -0.448617 -0.528101 0.373239 -1.045485 0.435159 -0.182896 -0.601672 -0.431319 -0.086651 -0.302789 0.152202 -0.200773 0.192367 -0.901131 -0.415487 1.455884 0.271063 -0.710292 0.232976 -1.490838 -0.190770 -0.360851 1.143299 -0.098151 -0.593151 -0.582460 -0.202424 -0.025248 -0.453622 0.580631 -0.189241 0.506677 1.140731 -0.038203 -0.046524 0.010075 0.114224 -0.043089 0.940090 0.287314 -0.079004
term -0.219768 -0.269986 0.153911 1.302892 0.481842 0.460438 0.498045 0.128215 0.342377 0.227647 -0.096851 -0.128783 -0.130000 0.437735 -0.553101 0.632946 -0.673856 0.657543 0.065212 -0.600133 0.768427 -1.068071 -0.528567 0.305866 -0.242134 -0.383151 -0.367545 -0.170657 0.134219 0.493075 0.254269 0.711339 0.080143 -0.320347 -0.236260 0.600382 -0.489360 0.134278 0.031925 -0.284003 0.970180 0.186630 -0.384147 -0.615520 -0.095402 0.753255 0.194134 1.048701 -0.077167 0.223384
we -0.660729 -0.178707 -0.689136 -1.248525 0.160136 0.535498 1.353757 -0.723329 -1.061728 0.589809 0.917780 0.661547 0.481920 -1.046157 0.054952 0.596840 -0.221163 0.095343 -0.831506 0.999658 0.599427 -0.476088 -0.141298 -0.152906 -0.693166 0.512836 0.751789 -0.134736 0.404245 1.335763 -0.114318 0.065576 -0.468655 -0.182642 -0.150178 0.639087 0.086358 0.382143 0.019388 1.689530 0.489118 0.158221 -0.480826 -0.020120 -0.049398 0.420135 0.287804 0.096193 -0.763709 1.073697
end 0.289782 -0.257034 -0.840018 0.645895 -0.121888 0.654694 -0.071803 -0.414904 -0.313545 0.263063 0.053657 0.258967 -0.240801 -0.021434 0.478609 0.615938 -0.098693 -0.174915 -0.732020 -0.385512 0.125476 -0.638572 0.405105 -0.202618 0.232535 -0.144495 0.610450 0.112751 -0.277082 0.095225 -0.201850 -0.537259 0.417425 -0.144281 -0.062489 0.246707 0.798930 0.333429 -0.866918 0.629935 0.306593 0.439638 -0.782960 -0.173436 -0.389780 -0.278215 0.196753 0.253664 -0.496965 -0.379425
book 0.490492 0.478538 -0.195454 -0.409342 0.182603 0.970095 0.898514 0.693452 -0.760739 -0.010259 0.573185 -0.458321 0.808734 0.396906 0.279346 0.528218 0.449828 0.231890 0.217344 0.113659 -0.943212 -0.396125 0.026438 -0.122728 -0.145816 -0.967683 0.274998 0.002944 -0.356916 0.167199 -0.225805 0.449493 -0.698383 0.324617 0.237387 -0.118901 0.019832 0.074865 -0.614697 -0.117965 0.339065 0.062140 -1.032492 1.150161 -0.103669 0.308333 -0.170376 0.706967 0.685652 0.773009
found 0.251651 -0.531947 0.710234 -0.757167 0.452013 0.700786 -0.261066 0.013703 0.191277 0.617730 0.190858 -0.173958 0.168401 -0.017893 -0.124913 0.319657 0.272544 0.122660 -0.199687 0.126757 0.198772 -0.166448 0.456738 0.122821 -0.397786 -0.750546 -0.218222 -0.732563 0.370801 -0.258725 -0.748860 -0.206725 0.127472 0.234944 -0.044814 -0.014519 -0.098884 0.314723 -0.056311 0.195938 0.456853 -0.051885 -0.924879 0.385758 0.057572 0.038753 -0.005527 0.085822 -0.463028 0.290950
own -0.057837 -0.754925 0.166226 -0.216475 0.534968 1.002561 0.545662 -0.123929 0.010402 -0.711085 0.336477 0.092298 -0.378608 0.425187 0.507127 0.330385 -0.350077 -0.036061 0.142084 -0.056095 0.390822 -0.060012 -0.273330 -0.043844 -0.625165 0.208245 -0.050264 0.074257 -0.339896 0.158403 0.555834 0.089241 -0.929303 0.294826 0.824465 -0.254850 0.387578 0.306266 -0.300483 -0.147505 -0.156131 0.612978 -0.859753 0.003398 -0.400697 0.001030 0.390162 -0.179672 -0.846848 0.682666
political -0.558034 -0.408813 -0.245374 0.751240 0.676103 0.633938 0.664177 0.372021 0.226179 -0.380732 -0.140831 0.054435 -1.535720 0.092960 0.191695 0.503110 -1.647401 0.146431 0.050233 -0.334033 0.147558 -0.649071 -0.573502 1.026811 -0.051965 0.212288 -0.862351 -0.151453 -0.696679 -0.483378 -0.307863 1.498576 -0.685076 -0.208308 -0.253625 -0.063968 0.031050 0.909749 -0.411751 0.446989 -0.332272 0.217873 -0.466230 0.293515 0.195287 -0.502432 0.986252 0.226345 0.276163 -0.728925
party -0.521713 -0.092035 -1.154849 0.569842 0.231332 0.364987 -0.149101 0.012335 0.954843 -0.246584 -1.068928 0.135131 -1.490879 -0.016370 0.061437 0.512488 -0.797295 0.048500 -0.400185 -1.203036 0.328236 -0.066882 -0.124193 -0.152351 -0.133971 0.048947 -0.883646 -1.721455 -0.472606 -0.461609 0.679729 1.908703 -0.741733 -0.557195 -1.189213 0.392242 0.938126 0.322209 0.385554 0.370319 -0.159936 0.046006 -0.507925 0.498849 -0.076026 -0.872153 0.805179 0.413177 -0.432633 0.044515
order -0.123159 -0.556520 0.402943 -0.161786 -0.120789 0.657793 0.071669 -0.356843 -0.307737 0.345614 0.078749 0.363915 -0.641712 -0.344188 0.535503 0.806111 -0.816293 0.464347 0.024865 -0.468683 0.278759 0.204077 -0.067857 0.099285 -0.220937 0.098439 0.059756 0.529193 -0.178267 0.378069 0.351806 -0.428452 -0.275893 -0.309192 -0.060300 -0.655105 -0.127640 0.205997 -0.245645 1.076371 -0.207807 -0.123339 -0.473162 -0.247413 0.152118 0.675738 0.196425 -0.471848 -0.876790 0.839684
usually -0.131537 0.007477 0.577466 -0.014366 0.484818 0.876348 -0.247250 -0.477176 0.561568 0.505117 0.144229 -0.133894 0.471421 -0.018964 -0.464556 -0.071151 -0.518766 -0.358873 -0.055818 -0.338943 1.201283 -0.243182 0.719894 -0.267714 -0.302612 -0.773811 0.147199 -0.355870 -0.172539 -0.161279 0.320997 -0.331037 0.706100 -0.214263 -0.023412 0.448638 0.254218 0.501232 -0.622074 -0.114474 0.494025 0.035951 -0.383138 -1.113860 0.069100 0.683706 0.041631 0.300324 -0.158224 0.427565
president 0.348275 0.324967 -1.204502 0.959004 0.029885 -0.246880 -0.595731 -0.220075 0.976790 -0.161564 -0.509219 0.647882 -0.373637 -0.053712 -0.144642 0.587169 -0.934371 -0.027072 -0.803068 -0.080537 -0.970063 -0.720062 -0.110536 -1.009339 -0.192446 -0.163906 -1.242491 -0.239493 -0.138882 -0.186511 0.576480 0.932925 -1.980132 -0.768396 -1.320228 0.360845 0.114369 -0.238980 -0.013781 0.333029 -0.202341 -0.693334 -1.520604 -0.243011 -0.269647 0.254437 1.227407 -0.427553 0.044641 0.352675
church -0.211777 -0.129143 0.208273 -0.180262 -0.917337 0.116120 -0.490185 -0.207143 -0.243350 -0.453135 0.461536 -0.054947 -0.058743 0.937662 -0.273519 1.199384 -0.899655 0.894851 -0.299017 0.083029 0.183182 0.343673 1.432380 -0.048986 -0.719974 -0.265216 -0.420282 -0.902571 -1.320162 0.682773 0.677114 0.219273 -0.256647 1.049203 -0.132525 -1.308222 -0.810764 0.403721 -0.038684 0.542256 -0.002783 0.670993 -1.889490 0.599804 0.394784 -0.370970 0.224766 0.399158 0.335279 -0.129944
you -0.252538 -0.042077 -1.077984 -1.050163 -0.001295 0.693644 1.299504 -0.183413 -1.059796 0.094074 0.766776 1.058695 0.654025 -0.599599 -0.120573 0.024884 -0.102911 -0.865590 -0.132736 0.837034 0.405482 -0.889636 0.512858 -0.964222 -0.389804 0.387690 0.890169 -0.560719 0.475522 0.901969 -0.065824 0.017489 -0.278437 0.283305 -0.061186 0.661980 1.783087 -0.292704 0.639970 0.567459 0.033757 0.416017 -0.975385 0.111391 -1.020195 1.045415 -0.263666 0.062957 -0.709423 0.782246
death 0.695984 0.248800 -0.038109 0.167160 0.125429 0.557906 0.012216 0.624604 -0.140371 0.566536 0.787702 0.268493 0.517604 0.352350 0.023488 0.916409 -0.172536 0.736203 -0.712206 0.331120 0.242556 -0.998760 0.254195 -0.727115 -0.474867 -0.845778 -0.506684 0.428131 0.921609 -0.153720 -0.664824 0.181586 -0.027243 0.386387 -0.082042 -0.865752 0.170441 0.142868 -0.508281 -0.200518 -0.386852 0.268047 -0.725352 1.066686 -1.310227 -0.308267 1.078819 -0.189833 -0.362711 -0.664301
